tree
version=v2
num_class=1
num_tree_per_iteration=1
label_index=0
max_feature_idx=21
objective=binary sigmoid:1
feature_names=cate_id latitude_r longtitude_r gender age job cate_level1 cate_level2 cate_level3 area_id avg_price poi_star longtitude_p latitude_p price_average discount_price_average discount price_max discount_price_max price_min discount_price_min distance
feature_infos=[1:21413] [-38.369238399999993:52.171551600000001] [-123.9307941:173.9278759] [0:1] [15:68] [0:3] [3:379] [10:2325] [8:2548] [5:79787] [0:19415] [0:50] [75.153697900000026:130.34366790000001] [11.7753426:50.371776599999997] [3:9569.0333333333328] [1:4500] [0.021739130434782608:1] [3:13800] [1:9800] [0.5:8000] [0.01:4500] [2.2353255357214548e-05:329.37692103133537]
tree_sizes=2549 2572 2628 2592 2623 2618 2605 2587 2594 2570 2603 2622 2623 2605 2618 2608 2626 2633 2627 2594 2582 2614 2613 2600 2553 2608 2589 2587 2637 2617 2618 2631 2589 2610 2619 2629 2638 2609 2624 2622 2634 2625 2591 2620 2622 2625 2631 2598 2605 2586 2572 2601 2598 2623 2635 2630 2620 2620 2603 2630 2617 2614 2610 2628 2595 2606 2614 2614 2624 2626 2605 2589 2602 2628 2568 2626 2555 2617 2612 2609 2627 2596 2628 2625 2619 2618 2597 2608 2609 2634 2586 2616 2643 2620 2595 2610 2636 2618 2596 2629 2602 2601 2589 2604 2632 2597 2604 2601 2625 2622 2596 2627 2616 2572 2612 2614 2639 2618 2607 2625 2615 2639 2597 2586 2599 2561 2614 2594 2642 2553 2609 2610 2551 2601 2603 2572 2631 2624 2643 2582 2640 2626 2576 2586 2608 2597 2579 2604 2606 2612 2573 2618 2628 2596 2618 2619 2618 2637 2545 2542 2536 2625 2611 2627 2597 2549 2528 2606 2562 2625 2615 2551 2620 2572 2633 2534 2582 2542 2530 2594 2584 2585 2599 2560 2589 2574 2592 2565 2627 2603 2640 2619 2553 2600 2588 2589 2587 2543 2613 2586 2526 2588 2571 2558 2580 2584 2578 2580 2548 2569 2637 2581 2584 2546 2591 2561 2551 2555 2643 2623 2570 2562 2608 2564 2620 2562 2616 2526 2595 2561 2597 2628 2557 2552 2573 2591 2601 2567 2624 2626 2565 2575 2542 2511 2517 2564 2544 2590 2567 2563 2573 2615 2553 2585 2553 2549 2573 2577 2525 2598 2526 2644 2544 2616 2521 2559 2592 2517 2586 2617 2528 2590 2613 2504 2625 2518 2586 2604 2550 2578 2535 2622 2562 2535 2565 2547 2538 2534 2520 2546 2544 2526 2571 2538 2531 2564 2542 2546 2564 2522 2549 2556 2565 2594 2517 2574 2551 2529 2535 2581 2577 2565 2587 2621 2549 2603 2528 2577 2556 2548 2550 2563 2574 2490 2556 2587 2601 2567 2571 2573 2515 2564 2573 2536 2529 2607 2525 2559 2540 2619 2558 2599 2524 2614 2585 2548 2577 2570 2494 2556 2560 2503 2502 2502 2595 2504 2582 2582 2558 2484 2563 2593 2552 2467 2536 2571 2529 2555 2544 2555 2599 2580 2524 2541 2527 2573 2588 2537 2583 2564 2578 2542 2515 2519 2593 2572 2568 2582 2540 2521 2583 2475 2598 2566 2478 2559 2587 2566 2512 2571 2569 2549 2541 2525 2556 2590 2597 2521 2593 2532 2506 2480 2568 2591 2565 2526 2481 2581 2549 2541 2537 2500 2525 2544 2571 2565 2526 2487 2598 2523 2565 2539 2525 2516 2508 2552 2596 2513 2574 2607 2555 2564 2574 2570 2538 2558 2509 2504 2570 2596 2545 2586 2608 2525 2538 2565 2570 2573 2535 2574 2560 2595 2599 2550 2538 2564 2563 2564 2490 2594 2598 2558 2554 2561 2543 2557 2565 2546 2609 2549 2536 2539 2582 2592 2548 2535 2555 2559 2535 2568 2559 2587 2579 2562 2523 2591 2523 2553 2538 2565 2476 2576 2569 2577 2557 2536 2556 2583 2549 2558 2546 2505 2569 2502 2545 2548 2537 2528 2492 2608 2575 2546 2522 2581 2544 2559 2475 2514 2583 2574 2563 2555 2568 2584 2572 2589 2519 2536 2552 2527 2469 2557 2533 2571 2561 2550 2564 2515 2535 2468 2561 2499 2574 2579 2554 2580 2521 2548 2600 2489 2568 2482 2532 2518 2541 2536 2541 2534 2577 2573 2499 2603 2522 2565 2537 2487 2544 2580 2526 2574 2544 2550 2521 2535 2571 2570 2577 2594 2572 2528 2491 2548 2527 2521 2610 2560 2541 2545 2536 2517 2552 2534 2525 2534 2576 2563 2523 2557 2521 2524 2578 2570 2541 2578 2515 2492 2577 2584 2542 2541 2561 2522 2542 2607 2542 2538 2536 2577 2555 2496 2531 2497 2522 2547 2488 2533 2558 2528 2559 2571 2535 2519 2563 2530 2551 2564 2556 2584 2546 2535 2511 2547 2594 2541 2520 2510 2572 2564 2550 2595 2536 2528 2559 2591 2572 2500 2507 2528 2568 2553 2539 2488 2464 2570 2554 2559 2550 2573 2567 2527 2582 2547 2461 2493 2532 2489 2512 2482 2577 2509 2548 2567 2540 2565 2554 2498 2525 2537 2536 2542 2471 2513 2543 2506 2566 2604 2594 2531 2582 2588 2464 2560 2555 2484 2489 2532 2482 2544 2592 2555 2571 2549 2530 2563 2532 2522 2547 2621 2582 2571 2552 2577 2542 2575 2583 2494 2511 2586 2569 2611 2564 2599 2549 2571 2569 2518 2584 2517 2480 2530 2500 2569 2549 2571 2591 2523 2611 2495 2540 2567 2512 2535 2501 2557 2614 2527 2492 2517 2501 2545 2535 2573 2531 2587 2536 2545 2495 2553 2562 2589 2509 2562 2533 2561 2583 2569 2523 2529 2529 2484 2574 2568

Tree=0
num_leaves=30
num_cat=0
split_feature=4 15 16 12 17 12 15 16 12 12 12 12 12 4 15 15 17 17 12 12 17 12 12 15 12 17 16 16 12
split_gain=797.381 342.109 211.368 147.883 123.243 101.014 88.8117 87.7514 88.1507 82.4869 76.8213 42.5784 92.8264 42.9785 41.638 37.3219 38.9423 36.679 36.3513 92.2649 36.1781 33.8638 33.448 32.8038 31.005 30.5739 41.8555 28.4016 28.1635
threshold=24.500000000000004 177.61315789473687 0.66312245159442584 116.50404590000002 378.80000000000007 117.8383414 15.929166666666669 0.66809082803465902 106.19544590000002 117.50873090000002 105.85623840000001 105.85623840000001 115.02458040000003 29.500000000000004 13.807142857142859 213.00038461538466 364.55000000000007 977.50000000000011 109.48679990000001 108.20828240000002 18.500000000000004 120.83789990000001 105.6747859 264.10000000000008 112.08422590000002 1723.8350000000003 0.72609963737471983 0.51591271011080064 105.94056390000001
decision_type=8 8 10 2 10 2 10 8 2 2 2 2 2 8 10 10 10 10 2 2 8 2 2 10 2 10 10 8 2
left_child=5 2 4 18 14 7 -4 8 -1 10 -6 22 -13 -14 -2 16 -10 -17 19 -3 -9 -7 -8 -5 -20 26 -25 -26 -16
right_child=1 3 6 23 9 21 11 20 15 -11 -12 12 13 -15 28 17 -18 -19 24 -21 -22 -23 -24 25 27 -27 -28 -29 -30
leaf_value=-3.7089732724776732 -3.739836655740175 -3.7222904705802029 -3.7379929857471508 -3.7173532488148284 -3.7292069910575179 -3.705756832017788 -3.7219739388942381 -3.7437594613164014 -3.7209924712328681 -3.7276097771398846 -3.7437250808001896 -3.7294843312411046 -3.7164745493597615 -3.7242225805402951 -3.7202892913221963 -3.6977741550882848 -3.7320660826503995 -3.7235003655169403 -3.7344887241587026 -3.6967981885077568 -3.7124538874877602 -3.7166024936332986 -3.7090431487105775 -3.700791267742094 -3.735979565680736 -3.7195287814403164 -3.7145498358335933 -3.7235995690655881 -3.7289377291090537
leaf_count=48161 33424 156892 58529 180793 50284 178443 131820 3860 62565 67199 189366 392317 97038 386165 47928 9759 76345 15124 38025 16871 342063 38284 25783 48801 21501 30693 47844 272255 272836
internal_value=0 -0.0559231 -0.107751 0.0557144 -0.200714 0.185244 -0.0514291 0.138255 0.0326394 -0.297345 -0.354518 -0.037251 -0.055197 0.00593999 -0.116867 -0.0402976 -0.0824371 0.193626 -0.0136412 0.0635113 0.202907 0.30594 0.0623818 0.169434 -0.0540633 0.250418 0.307861 -0.0310652 -0.0936635
internal_count=3340968 2566364 1752689 813675 661037 774604 1091652 557877 211954 306849 239650 1033123 875520 483203 354188 163793 138910 24883 505544 173763 345923 216727 157603 308131 331781 127338 96645 293756 320764
shrinkage=1


Tree=1
num_leaves=30
num_cat=0
split_feature=10 7 7 7 7 7 7 7 14 7 12 7 10 20 12 12 7 7 14 20 10 12 19 12 10 12 12 12 12
split_gain=2286.05 701.324 370.148 311.665 218.128 154.579 161.597 175.681 146.591 139.71 139.478 127.231 70.9157 58.1166 55.9071 62.5452 49.1901 46.5045 40.1606 39.3432 37.5564 35.8158 34.6966 31.5717 31.5677 30.1509 38.0885 29.621 26.6033
threshold=35.500000000000007 233.50000000000003 307.50000000000006 242.00000000000003 280.50000000000006 192.50000000000003 201.50000000000003 228.50000000000003 58.083333333333336 256.00000000000006 109.02802990000002 2164.5000000000005 56.500000000000007 50.400000000000006 122.5912354 116.50404590000002 16.500000000000004 2162.5000000000005 725.83333333333337 11.840000000000002 106.50000000000001 117.50873090000002 86.450000000000017 109.48679990000001 160.50000000000003 117.8383414 109.02802990000002 110.49355940000001 124.50035340000001
decision_type=10 2 2 2 2 2 2 2 10 2 2 2 10 10 2 2 2 2 10 8 10 2 8 2 10 2 2 2 2
left_child=1 -1 3 5 8 16 -7 22 28 21 19 -6 -12 -9 15 27 -2 -16 24 -4 -21 -5 -8 -11 -18 26 -24 -14 -3
right_child=2 4 10 9 11 6 7 13 -10 23 12 -13 14 -15 17 -17 18 -19 -20 20 -22 -23 25 -25 -26 -27 -28 -29 -30
leaf_value=0.002271595953365322 0.0011764700172612235 -0.0062618989037359395 0.035134323985035638 -0.021588763869236312 0.0053650986910316091 -0.0012274372203576875 0.01358482697402107 0.011321296946573843 -0.027720965774925319 0.027363035030904592 0.0012145206236170295 -0.016546910707189361 -0.010603674925768261 0.00036497189691581697 -0.005916455610038898 0.014505836800149536 0.012147305568992054 0.027235126923083299 -0.0028611825503754014 0.015775844500840776 0.035041402990252275 -0.0082096721426867716 0.042401826346083228 0.00036580318101640629 0.0028959573843509675 0.040543269709310562 0.013151450222327783 0.0080736219542022463 0.048149041267679271
leaf_count=172067 83652 31813 16984 85005 37077 823314 30454 72829 373654 5087 120039 127316 9404 186265 35900 264162 301614 5032 24388 96040 12305 29624 6532 39665 46119 14417 18130 271289 791
internal_value=0 -0.323344 0.0918184 0.0378827 -0.434988 0.0653629 0.0247246 0.148128 -0.517254 -0.240335 0.206319 -0.231626 0.170272 0.0690787 0.200091 0.217702 0.167919 -0.0343557 0.200298 0.408417 0.360856 -0.362523 0.441448 0.0713894 0.218408 0.571329 0.424623 0.148846 -0.0926059
internal_count=3340968 742718 2598250 1767095 570651 1607714 1151941 328627 406258 159381 831155 164393 705826 259094 585787 544855 455773 40932 372121 125329 108345 114629 69533 44752 347733 39079 24662 280693 32604
shrinkage=0.05


Tree=2
num_leaves=30
num_cat=0
split_feature=21 10 21 10 21 21 21 14 14 21 1 21 10 5 5 21 14 14 14 10 1 10 2 14 21 21 21 2 1
split_gain=4034.79 1448.59 925.559 755.781 308.444 254.608 209.968 163.163 122.59 102.368 88.8336 80.6658 55.4267 48.5291 46.0706 46.0246 43.2832 42.8205 39.7654 39.4353 43.8701 37.531 37.5227 34.4065 31.1916 29.992 30.7039 29.098 30.0626
threshold=0.050071554073111126 35.500000000000007 0.016816011025922322 35.500000000000007 0.078072347611348805 2.245740692506319 0.2918258993143576 138.67083333333338 100.08333333333336 0.0071464005824675549 19.516649071995278 0.0063182610116375671 18.500000000000004 1.0000000180025095e-35 1.0000000180025095e-35 2.7003869927984336 412.74047619047622 427.68750000000006 363.07142857142867 116.50000000000001 41.79077067037823 20.500000000000004 115.29822207352676 377.26712962962966 0.0046369532534896738 2.7003869927984336 0.085418149954011133 118.3273319 30.199587111004046
decision_type=8 10 10 8 8 10 10 10 10 10 10 10 8 8 10 10 10 10 10 10 10 10 10 10 10 10 10 10 10
left_child=1 7 9 8 -5 6 13 11 25 16 -4 21 -13 -6 -12 -10 -3 -11 -16 20 -15 -1 24 -24 -9 26 -2 28 -20
right_child=3 2 10 4 5 -7 -8 22 15 17 14 12 -14 19 18 -17 -18 -19 27 -21 -22 -23 23 -25 -26 -27 -28 -29 -30
leaf_value=0.0087708227855188958 -0.0089286403519335551 0.036241192924964645 0.061667603154057206 0.0025245092784957866 -0.017908049253981786 0.0091788256396396692 -0.016360185711598803 0.0064617731558202765 -0.026856620416819445 0.02585943616914432 -0.0013460417922577256 -0.0098467993120576469 0.0041995534743516907 -0.0064234691289132648 0.011047757762908398 -0.0064095866110293002 0.055602682629663606 0.042022503524696872 0.021587716079403102 -0.00013419042131368526 -0.018500920146873347 0.03678382798996975 -0.0083113226846488943 0.025817205943970984 -0.018486869245650944 0.0066655216345973866 -0.018790376061364172 0.026935481152237518 0.0062125593897137312
leaf_count=14254 54029 155346 3510 345962 39700 80520 365507 5769 268098 215356 28860 56173 68081 565920 543267 13009 14179 19605 28134 101564 34370 8236 33713 3339 111180 6972 99717 29598 27000
internal_value=0 0.275216 0.387799 -0.190481 -0.122183 -0.172437 -0.198396 -0.1336 -0.433712 0.635115 0.236005 0.0239576 -0.0423831 -0.134805 0.23009 -0.518303 0.75885 0.545147 0.241864 -0.122108 -0.142403 0.386979 -0.285895 -0.100853 -0.344818 -0.287556 -0.30685 0.373954 0.282463
internal_count=3340968 1365600 1064855 1975368 1533543 1187581 1107061 300745 441825 404486 660369 146744 124254 741554 656859 281107 169525 234961 627999 701854 600290 22490 154001 37052 116949 160718 153746 84732 55134
shrinkage=0.05


Tree=3
num_leaves=30
num_cat=0
split_feature=21 21 7 7 7 21 21 21 7 7 7 7 7 7 7 7 7 7 21 7 7 7 7 7 20 7 7 7 7
split_gain=3625.89 977.535 289.501 766.41 289.127 283.299 304.056 232.032 189.635 776.028 236.446 152.823 111.834 369.319 89.8256 81.1575 310.909 83.9962 80.8618 79.5751 66.6355 56.1634 53.3676 85.4405 42.354 38.7214 35.6649 33.4169 32.9965
threshold=0.050071554073111126 0.016816011025922322 260.00000000000006 242.00000000000003 2164.5000000000005 0.078072347611348805 2.245740692506319 0.2918258993143576 256.00000000000006 242.00000000000003 2164.5000000000005 2162.5000000000005 252.00000000000003 242.00000000000003 2165.5000000000005 305.00000000000006 242.00000000000003 2164.5000000000005 0.0071464005824675549 2164.5000000000005 2162.5000000000005 25.500000000000004 300.50000000000006 242.00000000000003 7.8400000000000007 192.50000000000003 192.50000000000003 2165.5000000000005 39.000000000000007
decision_type=8 10 2 2 2 8 10 10 2 2 2 2 2 2 2 2 2 2 10 2 2 2 2 2 8 2 2 2 2
left_child=1 8 3 26 20 15 7 12 9 18 11 -10 13 28 -12 16 25 -17 -1 -14 -4 -9 23 -23 -13 -2 -3 -6 -7
right_child=5 2 4 -5 27 6 -8 21 10 -11 14 24 19 -15 -16 17 -18 -19 -20 -21 -22 22 -24 -25 -26 -27 -28 -29 -30
leaf_value=0.032803654450767487 0.0072359309377302925 0.012761232045691188 0.016677222877730252 -0.019328684912851855 -0.012454210694178052 -0.0038578197770670407 0.005817791494399701 -0.0089911665084074551 0.032697406470899165 -0.01556369263877494 -0.00060223048599286188 0.10096559743970948 -0.0020189418684297199 -0.02697420872626017 0.045297397319961796 0.0089005289689711668 -0.022552539863548621 -0.013358800790780652 0.021876976691023994 -0.017474479427447353 0.029571717263741366 -0.018690722507110218 -0.015231193772342739 -0.031837957957819726 0.054548345836033019 -0.0016822909067238856 0.0065932810559298123 0.012678524073168888 -0.0096262680426950804
leaf_count=126298 77710 146688 146925 143336 38810 159631 103991 60636 85909 57402 25533 2307 252150 146143 5201 105905 82724 22450 168589 43069 60210 173247 169218 83380 32144 160956 319847 6401 334158
internal_value=0 0.257879 0.122686 0.0446548 0.308373 -0.182702 -0.225889 -0.251423 0.484723 0.401172 0.676741 0.803242 -0.190522 -0.240001 0.156477 -0.0372362 -0.0936542 0.101925 0.532147 -0.0845632 0.40965 -0.369326 -0.396397 -0.45753 1.16547 0.0246279 0.17085 -0.173877 -0.155159
internal_count=3340968 1365600 862217 609871 252346 1975368 1525623 1421632 503383 352289 151094 120360 935151 639932 30734 449745 321390 128355 294887 295219 207135 486481 425845 256627 34451 238666 466535 45211 493789
shrinkage=0.05


Tree=4
num_leaves=30
num_cat=0
split_feature=21 21 4 4 21 21 21 21 21 1 19 21 4 16 21 16 19 19 1 16 16 21 4 1 16 1 16 16 19
split_gain=3263.21 887.31 339.465 241.18 151.597 262.641 109.92 92.7133 99.5977 79.8418 71.9664 70.7141 61.2011 53.0277 43.1835 42.3047 36.2389 33.3223 33.0343 30.9983 28.8589 28.4525 26.2186 25.7754 25.7121 25.7064 35.5413 25.0893 24.0826
threshold=0.052276664866782889 0.016816011025922322 25.500000000000004 24.500000000000004 2.245740692506319 0.252892435291525 0.0071464005824675549 3.3302182984680031 0.2918258993143576 19.516649071995278 20.250000000000004 0.078072347611348805 24.500000000000004 0.52948308500637464 0.078072347611348805 0.52948308500637464 198.10000000000002 20.250000000000004 30.845750882758669 0.56641929052660533 0.55507911029580381 0.039955855964639526 19.500000000000004 29.827493788314044 0.65539254508182043 30.767786100000006 0.61456692515825273 0.65958613715041448 287.05000000000007
decision_type=8 10 8 8 10 10 10 10 10 10 8 8 8 8 8 8 10 10 10 10 8 10 10 10 8 10 8 8 10
left_child=1 6 7 21 5 11 18 8 14 -5 23 27 -8 -12 -2 -13 -17 25 -1 -19 -16 -3 -9 -11 -20 26 -14 -4 -15
right_child=2 3 4 9 -6 -7 12 22 -10 10 13 15 17 28 20 16 -18 19 24 -21 -22 -23 -24 -25 -26 -27 -28 -29 -30
leaf_value=0.031728349060889248 0.0058198372305368262 0.017799280682044439 -0.0093204660782870066 0.050915384318971059 0.0024434926283173198 -0.019585071766793069 0.026568256864216822 0.039369097487196324 -0.01052746938309118 0.00020036786243155365 -0.0057311040850523401 -0.019598571359445503 0.042141816787014647 0.0042981452273931596 -0.011563661101728224 -0.011260451060709714 -0.0013140002601967008 0.0067189173245630722 0.014864435306491085 0.019139907968026129 -0.00076386486703183386 0.0096629172289781282 0.012602830630585163 -0.010810393153496932 0.026837402161837526 -0.0027150855813262787 0.0079107757705884369 -0.0029070274546951907 0.017421462121791919
leaf_count=115775 106162 143311 104732 3107 77087 411621 71992 5278 128391 40899 59781 64617 3788 528114 31452 535657 43170 24962 26961 158921 213736 68635 14614 55146 66402 16944 17638 187261 14814
internal_value=0 0.23445 -0.180857 0.111211 -0.233448 -0.250152 0.449675 -0.032564 -0.0512972 0.0523201 0.0472354 -0.18891 0.368225 0.0733994 0.00589463 -0.228101 -0.21014 0.314386 0.561495 0.350054 -0.0426222 0.30368 0.400997 -0.122196 0.4693 0.137598 0.285689 -0.103605 0.0934426
internal_count=3340968 1417190 1923778 913807 1424145 1347058 503383 499633 479741 701861 698754 935437 294245 602709 351350 643444 578827 222253 209138 183883 245188 211946 19892 96045 93363 38370 21426 291993 542928
shrinkage=0.05


Tree=5
num_leaves=30
num_cat=0
split_feature=10 3 14 1 1 1 10 3 1 1 1 10 10 20 1 1 1 10 20 11 14 3 20 14 10 14 1 1 20
split_gain=1739.67 339.568 272.837 138.203 95.7331 115.614 77.9692 67.4531 62.189 78.3379 54.8527 47.6507 36.7482 28.3037 26.727 28.7717 26.5565 28.5768 28.0863 23.5079 23.0589 22.9031 22.7953 26.4671 22.7345 22.1884 21.2752 21.6991 23.918
threshold=35.500000000000007 1.0000000000000001e+300 113.05000000000001 30.862786441536972 23.908194425159078 19.516649071995278 18.500000000000004 1.0000000180025095e-35 40.107042945157431 38.407361659230851 37.264498814184869 58.500000000000007 50.500000000000007 138.13000000000002 24.022514413298023 25.095492029017517 22.224381100000006 44.500000000000007 16.850000000000005 43.500000000000007 94.083333333333357 1.0000000180025095e-35 19.100000000000005 58.083333333333336 28.500000000000004 177.03333333333333 38.79728810000001 39.31091772710959 35.100000000000009
decision_type=8 8 10 8 10 10 10 8 8 10 10 10 10 10 10 10 10 10 8 8 8 8 8 10 10 8 10 10 8
left_child=2 3 6 4 5 -2 21 24 9 10 11 -5 -6 -9 -14 25 18 -18 -7 -17 -19 -1 23 -8 -4 -16 -11 -28 -29
right_child=1 -3 7 8 12 16 22 13 -10 26 -12 -13 14 -15 15 19 17 20 -20 -21 -22 -23 -24 -25 -26 -27 27 28 -30
leaf_value=-0.0088404650610949716 0.033593063820555165 -0.0092738944640143352 -0.017969984554746347 -0.0019608211584916614 0.0027969550803240454 0.022222824746197588 -0.0020155286734801652 -0.025256592148390586 -0.002153845950869994 0.013708460931126772 -0.007981009250903618 0.0044113852264994818 0.027945420065746143 0.0072313245795896531 0.01342910002225866 0.00828185190645272 -0.013943248676983247 0.01759160731410888 0.004399828434686716 0.012223680434932344 0.00027421305728199039 -0.017523558150569749 0.003820550009616622 -0.015316521829377453 -0.010077495353003861 -0.00049846419293043476 -0.0017031196732657447 0.020940059363026269 0.006990006130485964
leaf_count=80956 11925 197368 193678 171787 81851 10045 84932 191259 251621 65628 55739 476556 8372 2930 16338 281722 15046 8349 125066 378326 217323 60290 52528 20746 55203 46097 27489 14337 137461
internal_value=0 0.0774378 -0.290605 0.0987068 0.148163 0.0631078 -0.136229 -0.399212 0.0489415 0.073069 0.0379158 0.0547893 0.188145 -0.494699 0.202675 0.198238 0.0420145 0.000358394 0.11514 0.21082 0.0187512 -0.251271 -0.0355371 -0.0920565 -0.324436 0.063849 0.173546 0.136448 0.166632
internal_count=3340968 2598446 742522 2401078 1200460 387754 299452 443070 1200618 948997 704082 648343 812706 194189 730855 722483 375829 240718 135111 660048 225672 141246 158206 105678 248881 62435 244915 179287 151798
shrinkage=0.05


Tree=6
num_leaves=30
num_cat=0
split_feature=21 0 0 21 0 21 0 21 12 21 21 21 21 1 14 12 1 12 1 1 1 14 1 12 12 1 12 12 0
split_gain=2917.53 1181.03 949.791 778.858 269.406 191.404 154.07 134.576 114.283 110.691 99.3352 98.6679 104.042 88.3433 77.7368 64.2868 62.4664 60.4588 61.1174 53.509 49.9753 49.7202 46.0373 63.0466 49.7822 44.6752 67.5816 46.2867 43.7558
threshold=0.052276664866782889 6.0000000000000009 6.0000000000000009 0.016816011025922322 14.000000000000002 0.093404759261117326 31.500000000000004 2.7003869927984336 116.24745640000002 0.31059013188775625 0.0029591724107431161 2.245740692506319 0.25967606656786385 19.516649071995278 433.26666666666671 115.02458040000003 34.365082269732618 115.09164440000002 32.185217421377544 31.41286089324873 40.220951905581181 19.354166666666668 30.6508821 100.99831340000001 115.02458040000003 31.59668653194834 114.83084690000003 100.85176240000003 38.000000000000007
decision_type=8 10 10 10 10 8 10 10 2 10 10 10 10 10 10 2 10 2 10 10 10 8 10 2 2 10 2 2 10
left_child=1 3 5 10 19 15 -3 9 13 17 -1 12 -6 -5 21 16 -2 18 -7 -4 -10 -12 23 -15 -24 27 -27 -23 -8
right_child=2 6 4 8 11 7 28 -9 20 -11 14 -13 -14 22 -16 -17 -18 -19 -20 -21 -22 25 24 -25 -26 26 -28 -29 -30
leaf_value=0.02916585889525505 -0.0067150559709088543 0.061579110856805785 0.029665870570901798 0.045547551147398689 0.011568372365062956 -0.012157150544507346 0.013432927355788441 -0.00033882944482654156 0.0094648039729801538 -0.018771191417899596 -0.0045988476302768191 0.037377564913501492 -0.0069112683525824536 0.030391694585423304 0.032592511833267369 -0.0016933150111800351 -0.019278138237468392 -0.0086003197459624797 -0.021661868513925479 0.057827763553126722 -0.0020776826490261371 0.048636725369297598 -0.0072726845146644393 0.0012472961039601566 0.0031579820511125779 0.0028174476841253751 0.017224328879655582 0.018224176490018704 0.039532900626175344
leaf_count=76518 224238 46634 22459 3616 99900 279745 9495 77733 254735 421005 12957 10824 51771 7747 27784 229396 55382 331972 106315 13038 47402 4916 163372 307067 69589 55505 84929 218905 26019
internal_value=0 0.219249 -0.172919 0.173351 0.265859 -0.223084 0.979694 -0.269028 0.0526979 -0.287942 0.375482 0.153104 0.107696 -0.00386159 0.335053 -0.115384 -0.18349 -0.237744 -0.295129 0.806679 0.153687 0.31021 -0.0113843 0.0400679 -0.0816471 0.32348 0.233185 0.379047 0.65388
internal_count=3340968 1417190 1923778 1335042 197992 1725786 82148 1216770 853528 1139037 481514 162495 151671 551391 404996 509016 279620 718032 386060 35497 302137 377212 547775 314814 232961 364255 140434 223821 35514
shrinkage=0.05


Tree=7
num_leaves=30
num_cat=0
split_feature=4 7 7 7 7 7 7 7 18 7 18 7 7 7 18 13 18 4 7 4 18 7 7 7 6 18 13 7 13
split_gain=624.489 404.876 1438.57 376.034 127.681 195.737 458.364 121.582 102.694 99.9667 91.4578 83.0483 151.88 117.145 74.8107 49.3064 47.1972 42.6052 35.8694 33.4803 32.33 33.681 31.5145 30.8113 29.2997 28.1598 25.2646 31.4366 23.6692
threshold=24.500000000000004 256.00000000000006 242.00000000000003 2164.5000000000005 192.50000000000003 307.50000000000006 242.00000000000003 2162.5000000000005 92.40000000000002 2165.5000000000005 98.40000000000002 192.50000000000003 201.50000000000003 228.50000000000003 88.40000000000002 40.332535600000014 528.50000000000011 46.500000000000007 16.500000000000004 28.500000000000004 1688.5000000000002 2163.5000000000005 16.500000000000004 2164.5000000000005 115.00000000000001 227.90000000000003 39.544693600000009 317.00000000000006 31.367284100000003
decision_type=8 2 2 2 2 2 2 2 10 2 10 2 2 2 8 2 10 8 2 8 10 2 2 2 2 10 2 2 2
left_child=4 2 11 7 16 6 -6 15 23 -5 -8 18 19 -14 -4 -3 22 20 -2 -13 21 25 -1 -7 -11 -9 27 -10 -15
right_child=1 3 14 9 5 8 10 17 26 24 -12 12 13 28 -16 -17 -18 -19 -20 -21 -22 -23 -24 -25 -26 -27 -28 -29 -30
leaf_value=0.012103259743674802 -0.00084891795452701204 0.0046106357234549609 -0.0053125064561966922 -0.017484674693532428 0.0088275749367671841 0.0096250375319335037 0.012915534518280258 0.0093093381198621587 0.023153443890401495 -0.036811585922829126 -0.018194367130628091 0.00014384353764875248 0.017215021482303632 0.0034503844437701924 -0.024794638182139301 -0.0062092253184775721 0.0017034448649621921 0.0081805753188435668 0.0052684625680876479 -0.0061250701222261422 -0.01170707278031332 0.011181455299469997 0.023312297812649343 -0.0052680601165253048 0.010610961227510691 0.026213350770409812 0.0058452660277889005 0.013694743688207531 -0.0036629482808462907
leaf_count=41759 159495 391484 23950 107656 283213 27598 11245 13380 84781 1328 115730 110892 58081 126590 379113 51305 18244 116885 296112 526577 3899 45708 75999 31900 19226 51451 17420 66715 83232
internal_value=0 -0.0506296 -0.107201 0.0710696 0.161349 0.122236 0.0357639 0.131145 0.273654 -0.264165 -0.305898 -0.00891381 -0.0453128 0.0853265 -0.471799 0.0674084 0.341016 0.251731 0.0632187 -0.100601 0.340666 0.361083 0.388382 0.038048 0.146638 0.455751 0.353909 0.380441 0.0129823
internal_count=3340968 2566364 1764042 802322 774604 638602 410188 674112 228414 128210 126975 1360979 905372 267903 403063 442789 136002 231323 455607 637469 114438 110539 117758 59498 20554 64831 168916 151496 209822
shrinkage=0.05


Tree=8
num_leaves=30
num_cat=0
split_feature=8 8 5 8 1 1 5 5 1 12 8 12 1 1 12 12 8 8 16 8 1 1 5 1 1 12 12 1 9
split_gain=909.894 1646.46 178.478 138.194 87.2001 95.4243 63.5155 91.2713 52.8626 59.5845 48.8423 45.9994 46.8668 45.8247 41.3801 40.718 39.9857 79.5767 37.0237 35.8447 35.1819 35.6966 34.9339 32.1341 29.2938 26.0758 22.7419 32.8282 30.8664
threshold=14.500000000000002 11.500000000000002 1.0000000180025095e-35 240.50000000000003 30.862786441536972 29.062381671313606 2.5000000000000004 1.5000000000000002 31.870263551949151 115.09164440000002 10.000000000000002 100.99831340000001 19.516649071995278 29.121282142854152 117.50873090000002 100.85176240000003 2115.5000000000005 2109.5000000000005 0.6581293375662457 2003.5000000000002 19.516649071995278 28.178618600000004 1.5000000000000002 30.235378834841566 34.327163162455783 116.91426640000002 103.43013490000003 29.827493788314044 28432.000000000004
decision_type=2 2 8 2 8 10 10 8 8 2 2 2 10 10 2 2 2 2 10 2 10 10 8 10 10 2 2 10 2
left_child=1 10 -2 8 5 11 7 -6 15 -10 22 -5 -13 -7 -3 -4 17 19 26 -14 -17 25 -1 -23 -11 -22 -15 28 -28
right_child=2 14 3 4 6 13 -8 -9 9 24 -12 12 16 18 -16 20 -18 -19 -20 -21 21 23 -24 -25 -26 -27 27 -29 -30
leaf_value=0.020067136398807299 -0.0093684697815421113 -0.024644729010470923 0.030363773536084871 0.021128620909801558 -0.00035011966530178255 0.019487333872855062 -0.0036946837515680455 0.0098990786281271288 -0.0022916394275392035 -0.0037395928435067262 0.0031088422308566364 0.030657487749354201 -0.0014198205084486031 0.02096099322681759 -0.015792043935081695 0.051433493036585093 0.0059371086963858214 -0.012809228880980914 0.0045364937812356187 0.005481518320618572 0.0037203136486929976 0.01655879909440524 0.010279747148535315 0.0079309409708385285 0.0093768354153245317 0.018828393142536454 0.012032065119900277 0.0051528311642275934 0.035376890095015913
leaf_count=81352 131386 390475 9724 11471 450961 30068 384073 116214 100427 20828 44371 4889 270049 20893 76183 1760 110594 57331 275943 113916 120840 90185 71813 91431 148240 13023 26287 68655 7586
internal_value=0 -0.227268 0.0515503 0.0634783 0.0366965 0.0791208 -0.00842885 0.0355119 0.150024 0.0818317 0.256975 0.0229041 0.0141889 0.151436 -0.463371 0.205124 0.00813772 -0.0200679 0.132602 0.0129211 0.191942 0.186221 0.310183 0.244969 0.155803 0.10497 0.225709 0.185202 0.349284
internal_count=3340968 664194 2676774 2545388 1948930 997682 951248 567175 596458 269495 197536 568250 556779 429432 466658 326963 551890 441296 399364 383965 317239 315479 153165 181616 169068 133863 123421 102528 33873
shrinkage=0.05


Tree=9
num_leaves=30
num_cat=0
split_feature=0 7 7 0 15 7 17 7 0 7 7 12 7 7 7 7 7 7 0 7 12 15 17 12 7 12 16 15 7
split_gain=1460.84 660.969 2919.33 501.25 377.9 182.176 174.255 152.825 116.143 108.843 105.957 90.1844 76.9757 74.776 72.164 117.513 63.7332 151.803 169.833 62.1979 53.3779 44.6021 44.5071 43.3467 37.3584 36.1968 40.1178 34.4918 40.297
threshold=6.0000000000000009 256.00000000000006 242.00000000000003 14.000000000000002 25.958333333333339 192.50000000000003 125.45000000000002 242.00000000000003 35.500000000000007 201.50000000000003 299.50000000000006 109.02802990000002 312.00000000000006 2164.5000000000005 308.50000000000006 215.00000000000003 201.50000000000003 228.50000000000003 47.000000000000007 2162.5000000000005 120.83789990000001 159.60625000000002 1993.5000000000002 110.10316740000002 2163.5000000000005 112.95550740000002 0.85308066115386894 230.51666666666668 16.500000000000004
decision_type=10 2 2 10 8 2 10 2 10 2 2 2 2 2 2 2 2 2 10 2 2 10 10 2 2 2 10 8 2
left_child=1 2 5 7 24 27 -4 -2 12 -7 -9 -6 14 19 15 -5 -10 -18 -19 20 -13 -20 -21 -11 -3 -25 -27 28 -1
right_child=3 4 6 8 11 9 -8 10 16 23 -12 13 -14 -15 -16 -17 17 18 21 22 -22 -23 -24 25 -26 26 -28 -29 -30
leaf_value=0.0028770503029711693 -0.028096931575776248 0.012747086175062561 -0.0067373341316576772 0.029661031478293992 0.014547731123498451 -0.0039930922185010794 -0.032851816721161282 0.057462518524875175 0.0024488280143976412 0.0093356367409935855 -0.018498882930958201 0.0052745809755234485 -0.014986152816489864 -0.0083658539960514682 0.074167718687129597 -0.02660897217392106 0.041226213644763782 -0.015346508872897992 0.012478264803494322 0.011776097736702847 -0.0055398741798231123 0.03476764103800796 -0.0043261507141759128 -0.0056360138448023995 -0.016530662861468575 0.0062269924600453297 -0.0059820109472243895 0.0010912231260647044 0.0095917660585232746
leaf_count=158087 2322 4593 31540 63091 131208 767020 419526 53795 62617 87154 1917 422434 4456 41361 3350 4397 19042 22017 28493 216266 55418 14643 19603 65993 96890 124006 36697 141362 241670
internal_value=0 -0.0423051 -0.110297 0.454208 0.0955098 0.0115625 -0.617486 1.01648 0.315965 -0.03761 1.09093 0.136467 0.52273 0.108781 0.574531 0.524789 0.207434 0.325247 0.169382 0.123873 0.0808901 0.406256 0.209138 0.0641798 -0.300195 0.0165158 0.0688045 0.108822 0.13983
internal_count=3340968 3060828 2073055 280140 987773 1621989 451066 58034 222106 1080870 55712 886290 75294 755082 70838 67488 146812 84195 65153 713721 477852 43136 235869 313850 101483 226696 160703 541119 399757
shrinkage=0.05


Tree=10
num_leaves=30
num_cat=0
split_feature=10 7 3 7 7 7 3 7 7 7 7 12 7 3 12 10 3 12 12 10 7 10 9 12 12 7 7 12 7
split_gain=1232.88 490.589 276.848 218.977 168.392 157.651 121.727 108.671 102.469 143.173 94.2878 83.1101 82.6117 51.2531 49.8573 48.2599 35.214 30.824 30.4344 30.4184 30.29 27.4773 26.3039 26.1904 23.3294 22.7999 38.0277 29.0486 32.8911
threshold=35.500000000000007 233.50000000000003 1.0000000000000001e+300 307.50000000000006 242.00000000000003 280.50000000000006 1.0000000180025095e-35 192.50000000000003 201.50000000000003 228.50000000000003 2164.5000000000005 105.88681340000001 256.00000000000006 1.0000000180025095e-35 115.70214190000003 74.500000000000014 1.0000000180025095e-35 117.50873090000002 110.10316740000002 49.500000000000007 16.500000000000004 85.500000000000014 7494.5000000000009 122.5912354 103.21639990000001 2162.5000000000005 312.00000000000006 120.74211840000002 2165.5000000000005
decision_type=8 2 8 2 2 2 10 2 2 2 2 2 2 10 2 8 8 2 2 10 2 10 2 2 2 2 2 2 2
left_child=1 -1 3 4 7 6 14 20 22 -10 -7 24 13 17 -3 23 -12 -6 -11 -20 21 -2 -9 -13 -5 26 -17 28 -27
right_child=2 5 -4 11 12 10 -8 8 9 18 16 15 -14 -15 -16 25 -18 -19 19 -21 -22 -23 -24 -25 -26 27 -28 -29 -30
leaf_value=0.002622987817285313 0.0063327853697640714 -0.02009787575758458 -0.0088029705246369539 0.012910286144647466 -0.013355294729062432 0.0054605196170352532 -0.030462069755798734 -0.0030182669166074101 0.019673625047916397 0.0081100318257167191 -0.0087811793550758559 0.0053732335001568992 0.003020042601738293 -0.025027563918597145 -0.0088834373219604905 0.014911287967925183 -0.020445395219064147 0.0030529856594628231 -0.010288313945546496 0.001942607545107912 0.0085393117440574883 -0.0063268983851670711 0.00084291275819981112 -0.0054025415007762237 0.024005865875983152 0.012220878125670815 0.0049456724546149263 0.025142167190877092 -0.012533557951380456
leaf_count=172036 46030 205623 197368 40538 50240 37040 135465 340691 62810 70331 74655 304072 41234 35896 65058 53891 52645 17768 25517 143467 346953 29602 421102 26193 37251 136382 148494 16972 5644
internal_value=0 -0.252656 0.0628611 0.0816982 0.0385087 -0.356323 -0.43388 0.0583648 0.0229772 0.123373 -0.180277 0.17065 -0.182378 -0.289713 -0.346704 0.147777 -0.27192 -0.178096 0.0500297 0.00237204 0.145571 0.0273111 -0.017748 0.0907772 0.366313 0.198603 0.152617 0.255308 0.224955
internal_count=3340968 742522 2598446 2401078 1631641 570486 406146 1486503 1063918 302125 164340 769437 145138 103904 270681 691648 127300 68008 239315 168984 422585 75632 761793 330265 77789 361383 202385 158998 142026
shrinkage=0.05


Tree=11
num_leaves=30
num_cat=0
split_feature=21 21 21 21 12 1 21 2 21 1 21 1 1 21 21 2 12 3 1 12 1 12 3 2 12 12 12 1 21
split_gain=2625.58 666.407 195.835 271.132 91.1077 106.849 78.0524 74.7121 72.5965 61.2533 54.5296 44.9927 45.2807 40.8646 34.7625 34.4916 34.3166 32.8521 31.1455 30.103 29.7858 26.6839 26.0073 24.9266 24.4957 23.2891 23.1615 26.3022 21.0885
threshold=0.054967038450282182 0.016816011025922322 3.3302182984680031 0.2918258993143576 115.09164440000002 33.816866600000012 0.0071464005824675549 116.23383004140631 1.7187258807264587 19.516649071995278 0.078072347611348805 40.220951905581181 34.777687114485978 0.037356981258216446 0.080424048147043112 117.22104216788888 115.5006154 1.0000000180025095e-35 30.6508821 118.39212490000001 30.862786441536972 100.85176240000003 1.0000000000000001e+300 119.12546829007761 108.70550490000001 116.69598590000001 115.70214190000003 40.220951905581181 0.029540423104735532
decision_type=8 10 10 10 2 10 10 10 10 10 8 10 10 10 8 10 2 8 10 2 10 2 8 10 2 2 2 10 10
left_child=1 6 3 4 5 14 -1 9 16 -3 -6 12 20 18 -2 -8 24 -12 21 25 28 -11 -16 -21 -5 -14 -10 -28 -9
right_child=2 7 -4 8 10 -7 15 11 26 13 17 -13 19 -15 22 -17 -18 -19 -20 23 -22 -23 -24 -25 -26 -27 27 -29 -30
leaf_value=0.023684055279827084 -0.0025790861384987506 0.037462889299715522 0.0073889300569314077 -0.014592228308616251 0.0015589776601780722 -0.016464349850030143 0.013405780084506859 0.016810339256483512 -0.010215279493949375 0.028478601646027307 -0.0029837646244896864 -0.00015125462204037789 0.016944406178145945 -0.00077241408956535635 -0.0077896533940650329 0.020861626291227075 -0.014129031109055385 -0.0088071535451583523 0.00094454708406889953 0.039267962956377231 0.0037312103668641124 0.0065502470744711371 -0.017961722453098371 0.018872177275428878 -0.022233906253447774 -0.00085517495856036747 0.011698836590277283 -0.012720480709637348 0.0079604541491458576
leaf_count=209138 146938 4003 77656 70402 154865 183447 205096 43902 29615 5430 234089 53681 18527 264009 333275 89149 210762 196976 147467 7592 100389 201209 32501 30751 180076 13343 15045 6916 74719
internal_value=0 0.199535 -0.170982 -0.185735 -0.134383 -0.18703 0.382376 0.0965166 -0.318577 0.0529815 -0.074031 0.172356 0.20343 0.0468514 -0.137908 0.314699 -0.346142 -0.112761 0.0928036 0.344833 0.157494 0.144125 -0.173281 0.462646 -0.40139 0.193661 -0.0805483 0.0806258 0.22547
internal_count=3340968 1468405 1872563 1794907 1282091 696161 503383 965022 512816 622118 585930 342904 289223 618115 512714 294245 461240 431065 354106 70213 219010 206639 365776 38343 250478 31870 51576 21961 118621
shrinkage=0.05


Tree=12
num_leaves=30
num_cat=0
split_feature=8 8 3 14 3 13 8 13 13 14 8 8 8 19 8 8 13 8 14 8 8 8 13 8 14 19 8 19 19
split_gain=677.947 1310.64 222.291 160.124 122.378 107.401 84.4342 67.2406 51.5868 46.9195 43.3145 36.4603 28.3172 25.8343 25.5473 41.9931 25.3169 23.4348 39.298 23.0503 21.2511 35.1604 20.5574 20.8958 20.0172 19.541 19.3283 19.0475 29.9978
threshold=14.500000000000002 11.500000000000002 1.0000000000000001e+300 19.354166666666668 1.0000000180025095e-35 30.865633600000006 225.50000000000003 28.841394600000005 19.518387600000008 185.68333333333334 240.50000000000003 2109.5000000000005 1935.0000000000002 105.50000000000001 161.00000000000003 169.50000000000003 30.100929600000008 2002.5000000000002 35.845238095238102 2389.5000000000005 136.50000000000003 161.00000000000003 41.335193600000018 1913.5000000000002 393.55000000000007 10.150000000000002 1907.5000000000002 99.300000000000011 19.250000000000004
decision_type=2 2 8 8 10 2 2 2 2 10 2 2 2 10 2 2 2 2 10 2 2 2 2 2 10 8 2 10 8
left_child=1 9 3 11 -3 6 13 8 -8 -1 14 -2 22 20 25 -16 -9 -10 -19 -18 -5 -22 23 24 26 -7 -12 28 -14
right_child=2 4 -4 5 -6 10 7 16 17 -11 12 -13 27 -15 15 -17 19 18 -20 -21 21 -23 -24 -25 -26 -27 -28 -29 -30
leaf_value=0.003915906092605663 -0.00063672600546847767 -0.017168659016013856 -0.0084564115573487093 0.014755434726843744 -0.029589031453130622 0.031392929261371272 0.033263082977845249 0.0095375601243264437 -0.00050437408358785585 0.014376133334146866 0.0013339813419243366 -0.016337673708474425 -0.0043540827501022993 0.018596688186344523 0.030918958300581764 0.0060929312166255467 0.0061319768863418314 -0.0075875130173693756 0.005225311156881531 -0.0025820806199978886 0.00068516954689239401 0.012145526664290423 -0.0080903350974831419 -0.0043507359993960196 -0.009561852977372472 0.00069506266208373461 0.020225513951278366 0.00019627961887012745 0.0067525502111969483
leaf_count=67589 23214 311679 203905 53949 154979 2034 4570 227466 288303 129947 181732 60650 33489 40488 6945 158857 212059 29904 224434 36573 50898 60964 53386 131595 17534 132322 5548 305901 130054
internal_value=0 -0.200368 0.0433665 0.0599488 -0.424819 0.0692283 0.111046 0.0866524 0.036854 0.218584 0.0239483 -0.234822 0.000172223 0.228556 0.0908201 0.144422 0.141948 0.030458 0.0758345 0.0969618 0.192499 0.140971 -0.0413394 -0.0224513 0.0189046 0.0240741 0.0388268 0.0340979 0.0911583
internal_count=3340968 664194 2676774 2472869 466658 2389005 1229608 1023309 547211 197536 1159397 83864 859239 206299 300158 165802 476098 542641 254338 248632 165811 111862 389795 336409 204814 134356 187280 469444 163543
shrinkage=0.05


Tree=13
num_leaves=30
num_cat=0
split_feature=10 18 10 10 12 19 12 12 18 12 15 12 12 18 10 19 12 10 12 12 19 12 18 20 19 19 20 18 15
split_gain=1025.18 204.865 68.8215 65.0489 51.3911 45.3 41.8059 40.0418 56.8169 38.8562 35.6175 34.9222 51.617 27.7713 27.2732 26.6767 24.4671 23.3193 22.6492 30.5185 46.5454 25.9148 22.2486 21.5494 20.3726 35.0067 19.7554 19.631 19.1167
threshold=35.500000000000007 120.50000000000001 51.500000000000007 18.500000000000004 115.5448999 99.300000000000011 103.43013490000003 117.23500340000001 286.10000000000008 102.81127390000002 191.47222222222226 109.02802990000002 111.9448694 988.44000000000017 78.500000000000014 80.250000000000014 122.5912354 29.500000000000004 102.14701940000002 109.33230690000003 333.50000000000006 112.08422590000002 388.50000000000006 69.890000000000015 107.25000000000001 99.300000000000011 88.840000000000018 280.50000000000006 111.75833333333335
decision_type=8 10 10 10 2 8 2 2 8 2 10 2 2 10 10 8 2 10 2 2 10 2 10 10 10 10 10 10 10
left_child=1 3 9 -1 6 11 22 18 16 -2 24 23 -13 14 -14 -11 27 -8 -7 20 -20 -21 -3 -4 25 -6 -10 -9 -16
right_child=2 4 5 -5 10 7 17 8 26 15 -12 12 13 -15 28 -17 -18 -19 19 21 -22 -23 -24 -25 -26 -27 -28 -29 -30
leaf_value=-0.010231687040090923 0.011813408393879203 -0.011814430903096492 0.0092356445997456207 -1.2472338004859546e-05 -0.01365955186117856 -0.0042033768211011593 -0.021738689494519021 0.0031925859938921595 0.0053669024784259445 0.0017002075323102536 0.0045208477000944795 -0.0089365302578460811 0.0032047119824441688 -0.007316955152331741 0.013232299928591757 -0.0047545054675854487 -0.0052961695738839021 -0.013518794271060095 0.0040829861752551015 -0.0056653048478407441 0.029950374411947339 0.0012907539404528713 0.0097897441982528876 0.03343457216148138 -0.021181078795545222 0.0052289133763782731 0.010587428573122459 -0.014330155908366777 0.006256004341255496
leaf_count=137552 20922 27040 159484 148332 57628 72813 252036 272439 163824 105624 15839 30416 198730 17575 62645 206460 47094 56033 234700 63234 6739 671752 7064 3640 27165 13833 135262 6608 118485
internal_value=0 -0.233917 0.0563547 -0.0951749 -0.331479 0.068874 -0.376848 0.0516712 0.0921945 -0.0325032 -0.203128 0.117475 0.0861675 0.105322 0.116936 -0.0513913 0.032875 -0.404364 0.0269935 0.035178 0.0975948 0.0140936 -0.143749 0.196385 -0.254972 -0.192865 0.155413 0.0553719 0.174037
internal_count=3340968 742522 2598446 285884 456638 2265440 342173 1674465 625227 333006 114465 590975 427851 397435 379860 312084 326141 308069 1049238 976425 241439 734986 34104 163124 98626 71461 299086 279047 181130
shrinkage=0.05


Tree=14
num_leaves=30
num_cat=0
split_feature=21 0 10 0 10 21 0 14 21 0 14 21 21 21 10 21 14 21 15 21 10 15 10 21 21 21 5 0 21
split_gain=2356.28 964.898 869.311 783.638 449.957 434.914 281.765 196.88 141.771 140.93 133.855 108.077 82.0778 85.8089 70.9699 60.9607 59.7709 59.4029 55.7825 53.0992 52.5738 46.7629 42.3293 36.208 36.1282 34.7122 34.362 32.1315 31.7655
threshold=0.054967038450282182 6.0000000000000009 35.500000000000007 6.0000000000000009 35.500000000000007 0.015950838097953678 14.000000000000002 157.41428571428574 0.11546276156941122 31.500000000000004 100.08333333333336 1.951197682893878 1.951197682893878 0.25967606656786385 36.500000000000007 0.2918258993143576 102.52500000000002 0.0079887857042993445 278.17142857142863 0.013397415967916146 35.500000000000007 223.58571428571432 48.500000000000007 0.0029591724107431161 0.037356981258216446 0.0046369532534896738 1.0000000180025095e-35 14.000000000000002 0.016816011025922322
decision_type=8 10 10 10 10 10 10 10 10 10 10 10 10 10 8 10 10 10 10 10 10 10 10 10 10 10 8 10 10
left_child=1 2 7 4 10 21 16 17 26 14 -2 15 13 20 27 -10 -5 -1 25 -16 -8 23 -18 -4 -7 -9 -6 -3 -11
right_child=3 9 5 6 8 24 12 18 11 28 -12 -13 -14 -15 19 -17 22 -19 -20 -21 -22 -23 -24 -25 -26 -27 -28 -29 -30
leaf_value=0.011692360870126666 -0.01323564828875912 0.076597526107930192 0.025205589011485671 0.003002779869429486 -0.015704130531624574 0.0082634421542874675 -0.0086297176514973321 0.0031201727379160499 -0.0093216135904538155 0.043180600448476665 -0.02735335222792943 0.00054352697139161332 0.030849424755190615 -0.0075997903458033898 0.068396574057251483 -0.015656326498252739 0.053662873343360534 -0.0048687479855315527 0.015276243875089263 0.037459479775410587 0.01253647876878526 0.027385758805001537 0.024861278822433067 0.016430246125773006 0.0036298463170692172 -0.022468382964018145 -0.0032079829529100333 0.018824718178734209 0.02158084348764093
leaf_count=27782 133007 14897 52764 4280 26477 420330 16201 6396 374168 8846 235526 78171 12121 50474 6857 316910 21594 132024 4661 25581 80728 57561 8707 260067 293573 127212 514199 1308 28546
internal_value=0 0.187228 0.14567 -0.163539 -0.211296 0.222549 0.234015 -0.190817 -0.157234 0.837327 -0.437393 -0.215795 0.120056 0.0750956 1.06461 -0.243356 0.793412 -0.0350162 -0.393041 0.894718 0.18657 0.390059 0.902809 0.35945 0.127566 -0.422062 -0.0757795 1.44225 0.5425
internal_count=3340968 1468405 1382370 1872563 1678458 1084295 194105 298075 1309925 86035 368533 769249 159524 147403 48643 691078 34581 159806 138269 32438 96929 370392 30301 312831 713903 133608 540676 16205 37392
shrinkage=0.05


Tree=15
num_leaves=30
num_cat=0
split_feature=12 12 16 19 12 12 19 12 19 19 19 12 12 12 17 12 16 19 12 16 16 9 12 9 9 16 9 9 9
split_gain=148.561 145.034 116.027 64.6761 54.9964 45.9882 45.271 53.0533 43.8554 89.6785 51.8571 36.7072 42.7522 44.7013 30.938 29.8798 38.2422 26.7303 26.7231 25.2972 24.0797 22.733 34.8623 33.5902 22.227 21.9238 25.4985 21.536 25.3911
threshold=115.39590790000001 105.85623840000001 0.6581293375662457 18.250000000000004 105.6747859 103.43013490000003 25.005000000000006 122.5912354 116.50000000000001 188.50000000000003 98.100000000000009 86.812732900000029 100.85176240000003 103.09934440000002 260.25000000000006 118.66497890000001 0.54754530773012311 48.400000000000006 109.33230690000003 0.85807557022340142 0.6706774143416846 32604.000000000004 119.34933590000001 33376.500000000007 719.50000000000011 0.78587573427168778 1026.5000000000002 5847.5000000000009 5800.0000000000009
decision_type=2 2 8 8 2 2 8 2 10 10 10 2 2 2 10 2 8 8 2 10 10 2 2 2 2 10 2 2 2
left_child=1 4 8 -4 5 11 -2 15 10 14 27 -1 -13 -14 -10 16 -8 -18 -11 -7 -15 -17 23 -23 -5 26 -26 28 -3
right_child=6 2 3 24 -6 19 7 -9 9 18 -12 12 13 20 -16 21 17 -19 -20 -21 -22 22 -24 -25 25 -27 -28 -29 -30
leaf_value=-0.0053078149935531244 -0.0027256359607985671 -0.0054089206427882092 -0.0091975177611098476 -0.0060693712886954777 0.010105918669411953 -0.0069525364592458146 -0.0057345616032283319 -0.0037450562428704218 0.0035475618248728361 0.018765092941555192 -0.0012518740363921025 0.013951051514678087 -0.0019056918306099133 0.013951795515388941 -0.021299962080937051 0.0045033137309025209 0.011213342352339192 0.0022312809295057952 -0.0048250676896703509 0.014657991187364905 0.0039856789148659151 0.042217071938786543 0.0055823320113824494 0.013590687515525099 0.008784383354950848 -0.0025257912859096218 0.00061846018263149482 -0.011856653268425069 0.033674389827212721
leaf_count=53363 178658 59454 116254 72295 81437 87162 64038 116516 6087 5159 142835 39165 121025 34929 97050 526288 37903 496517 48472 6003 84015 5330 45215 16591 44376 218384 385817 149030 1600
internal_value=0 -0.0410612 -0.0783864 -0.0315534 0.0517943 0.0212935 0.0471209 0.0597856 -0.161412 -0.26095 -0.120329 0.0564693 0.0851134 0.0521231 -0.392078 0.072378 0.0397576 0.0572035 -0.0429479 -0.109604 0.138567 0.104434 0.214634 0.419995 -0.00931761 0.00258384 0.0299746 -0.191707 -0.0824843
internal_count=3340968 1853912 1346813 837126 507099 425662 1487056 1308398 509687 156768 352919 332497 279134 239969 103137 1191882 598458 534420 53631 93165 118944 593424 67136 21921 720872 648577 430193 210084 61054
shrinkage=0.05


Tree=16
num_leaves=30
num_cat=0
split_feature=10 7 3 7 7 7 3 14 7 7 7 7 7 3 5 5 3 5 7 5 10 7 10 16 10 16 10 14 10
split_gain=819.215 407.959 216.068 185.236 132.831 130.884 116.683 88.9016 87.592 85.7859 117.236 85.5488 70.3842 46.074 39.2782 38.8682 33.5338 32.0859 27.2695 49.644 31.3492 26.6801 24.8789 22.0253 23.2086 18.6528 18.1413 17.7179 17.3644
threshold=35.500000000000007 233.50000000000003 1.0000000000000001e+300 307.50000000000006 192.50000000000003 280.50000000000006 1.0000000180025095e-35 58.083333333333336 242.00000000000003 201.50000000000003 215.00000000000003 2164.5000000000005 256.00000000000006 1.0000000180025095e-35 2.5000000000000004 1.5000000000000002 1.0000000180025095e-35 2.5000000000000004 2162.5000000000005 1.5000000000000002 48.500000000000007 312.00000000000006 108.50000000000001 0.76579279918414411 47.500000000000007 0.78700829856064514 28.500000000000004 66.557692307692321 60.500000000000007
decision_type=8 2 8 2 2 2 10 10 2 2 2 2 2 10 10 10 8 10 2 10 10 2 10 10 10 8 10 8 8
left_child=1 -1 3 4 14 6 7 -3 9 -6 -11 -7 13 27 15 -2 -13 18 19 -5 -20 -19 -17 -12 -25 28 -9 -10 -23
right_child=2 5 -4 17 8 11 -8 26 12 10 23 16 -14 -15 -16 22 -18 21 20 -21 -22 25 -24 24 -26 -27 -28 -29 -30
leaf_value=0.0032703843754055151 0.0066121474110087154 0.005133060558100061 -0.0081687264666322392 0.0049400383427084865 -0.0013466877203427868 0.006352941018322897 -0.028353551335038418 -0.018715407589246398 0.021284924779998961 0.018180167497526108 0.0045829125704644159 -0.0072363320932876275 0.0027498286298130929 -0.023732774852669739 0.0021174791559581017 0.020931596485431383 -0.018856530909367401 0.012843877222139678 -0.0015792020783351999 0.015273295969617665 0.013189348036813106 0.00015849831555514703 0.0054584463528647535 -0.014885096391710567 0.00017947468654456084 -0.0010351904179608962 -0.010625306974271529 -0.0092022059933022649 0.0070503326212187885
leaf_count=172036 215612 22839 197368 238854 761793 37040 135465 200432 1984 54026 144709 74655 41234 35896 156617 35418 52645 35372 16459 58181 166025 52703 14938 12294 91096 67594 47410 66024 134249
internal_value=0 -0.212612 0.049454 0.0657614 0.0261519 -0.312028 -0.386446 -0.299078 -0.00913959 0.0102962 0.101157 -0.149876 -0.167459 -0.269007 0.123111 0.170104 -0.239839 0.14666 0.178447 0.140155 0.238688 0.0933999 0.327788 0.0405144 -0.0312987 0.0703764 -0.342983 -0.163326 0.10317
internal_count=3340968 742522 2598446 2401078 1631641 570486 406146 270681 1209056 1063918 302125 164340 145138 103904 422585 265968 127300 769437 479519 297035 182484 289918 50356 248099 103390 254546 247842 68008 186952
shrinkage=0.05


Tree=17
num_leaves=30
num_cat=0
split_feature=0 0 4 15 4 16 16 15 16 0 3 3 0 15 4 0 15 4 11 15 11 15 3 15 16 16 16 16 16
split_gain=1198.57 466.357 442.553 158.662 124.187 115.683 66.2311 56.9708 50.485 49.6104 48.2703 47.6005 45.7154 48.4138 42.4511 38.5266 37.8135 35.5162 32.3486 31.0035 27.6075 26.3984 26.3468 26.1672 26.7293 24.0058 22.5604 21.9695 21.3051
threshold=6.0000000000000009 14.000000000000002 26.500000000000004 213.00038461538466 22.500000000000004 0.58972962727083622 0.65380046416806004 88.99210526315791 0.84446044019573441 35.500000000000007 1.0000000000000001e+300 1.0000000000000001e+300 38.000000000000007 75.275555555555556 22.500000000000004 35.500000000000007 15.929166666666669 34.500000000000007 34.500000000000007 160.22500000000002 46.500000000000007 78.075000000000003 1.0000000000000001e+300 268.05000000000007 0.72609963737471983 0.53970163108852132 0.52948308500637464 0.47046773236946365 0.48721922425626485
decision_type=10 10 8 8 8 10 8 10 8 10 8 8 10 8 10 10 10 10 10 10 8 10 8 10 10 10 10 10 10
left_child=2 8 6 5 15 7 20 -4 18 -6 16 23 13 -11 -8 -3 -7 28 -2 21 -1 -20 -23 -5 -25 27 -22 -9 -14
right_child=1 4 3 11 9 10 14 25 -10 12 -12 -13 17 -15 -16 -17 -18 -19 19 -21 26 22 -24 24 -26 -27 -28 -29 -30
leaf_value=0.0034736633477473557 -0.013042122228541651 0.045515117543659986 -0.0040353602993019374 -0.00088770246021311532 0.017768120598143242 -0.012865879700470907 0.0083730661637398292 -0.0097128669161504408 0.0067225561309837804 0.0075074996986034259 -0.010655127413165837 -0.0094168187519566033 -0.0010783207949503055 -0.021332676002416617 0.0029902997623299718 0.022301750910905662 -0.0038217810659869089 -0.0036926935723240063 0.033453128429072256 0.038369449197554049 -0.0090648978823325913 0.063885118224096149 0.02837610266538438 0.0073829805095226679 0.00010014842030020377 -0.010677867807749028 -0.00050069682679967052 -0.020241430172673682 0.014276662443896188
leaf_count=130971 797 12387 72393 211212 62907 59204 327760 31245 3156 13400 151734 47511 10906 11409 286548 17965 1153700 17061 5463 18707 50675 26701 3210 116053 92424 94593 120468 114337 76071
internal_value=0 0.40357 -0.0392777 -0.0920898 0.272009 -0.123268 0.0799122 -0.244677 0.934601 0.209575 -0.0978454 0.0123635 0.135361 -0.117596 0.117626 0.644327 -0.0843241 0.194248 0.98277 1.00273 -0.00143578 1.12453 1.20795 0.0335193 0.083839 -0.298304 -0.058289 -0.357144 0.247417
internal_count=3340968 280140 3060828 2144406 222106 1677206 916422 312568 58034 191754 1364638 467200 128847 24809 614308 30352 1212904 104038 54878 54081 302114 35374 29911 419689 208477 240175 171143 145582 86977
shrinkage=0.05


Tree=18
num_leaves=30
num_cat=0
split_feature=0 4 0 15 16 4 11 3 16 0 16 16 0 15 3 0 4 15 11 3 16 15 11 16 3 15 15 4 4
split_gain=1062.38 402.078 389.22 152.876 119.837 107.721 69.3147 45.6284 43.5312 41.5691 41.1872 40.9117 38.1135 45.3446 31.3319 30.6472 29.7136 29.4376 27.1545 26.573 25.3352 21.8582 25.0783 21.4405 20.6539 20.5192 26.9488 21.1636 20.3542
threshold=6.0000000000000009 24.500000000000004 14.000000000000002 213.00038461538466 0.66312245159442584 23.500000000000004 47.500000000000007 1.0000000000000001e+300 0.53970163108852132 35.500000000000007 0.84446044019573441 0.65380046416806004 38.000000000000007 88.050000000000026 1.0000000000000001e+300 35.500000000000007 34.500000000000007 15.929166666666669 34.500000000000007 1.0000000180025095e-35 0.65042206833842842 268.05000000000007 40.500000000000007 0.65241853079915491 1.0000000000000001e+300 147.30303030303034 78.075000000000003 34.500000000000007 22.500000000000004
decision_type=10 8 10 8 10 8 8 8 10 10 8 8 10 8 8 10 10 10 10 8 10 10 10 10 8 10 10 10 10
left_child=1 11 10 4 6 15 24 21 -8 -7 18 -1 13 -11 17 -4 -14 -6 -2 25 -10 -5 -23 -22 -3 26 -20 -27 -13
right_child=2 3 5 7 14 9 8 -9 20 12 -12 28 16 -15 -16 -17 -18 -19 19 -21 23 22 -24 -25 -26 27 -28 -29 -30
leaf_value=0.0011981994459595747 -0.012653842873216265 -0.0046303125794983063 0.038387605574342225 -0.00040288769258599175 -0.011427743700011454 0.016232288274481522 -0.018217822734418462 -0.009030652455041463 -0.0083238897160170088 0.006196548658641032 0.0063678498545411194 0.0078900637507610585 0.011229412606436309 -0.022561675687089472 -0.0088258075351152643 0.019990046632248598 -0.0035227908075835847 -0.0025561277760781007 0.032288587829194276 0.034660600778052914 -0.027978447230582706 -0.0018530224754050634 0.0059089866626527389 -0.011719763685640492 -0.013749847809061326 0.045848350956081585 0.066141508145583131 0.0092242699463734902 0.0033968413393292833
leaf_count=236016 797 285748 15151 233354 48171 60143 118288 47511 201883 14065 3156 327760 83411 10039 115544 22236 17061 986651 3607 19232 17175 56556 172337 27635 33413 15694 13584 1964 152786
internal_value=0 -0.0374099 0.375923 -0.0803144 -0.10967 0.255006 -0.182685 0.0177339 -0.249235 0.189156 0.849005 0.0961317 0.120275 -0.114996 -0.0694937 0.557114 0.17459 -0.0583749 0.890727 0.908081 -0.198608 0.0365122 0.0803441 -0.350771 -0.110735 1.01652 1.18582 0.838891 0.129365
internal_count=3340968 3060828 280140 2344266 1834508 222106 684142 509758 364981 184719 58034 716562 124576 24104 1150366 37387 100472 1034822 54878 54081 246693 462247 228893 44810 319161 34849 17191 17658 480546
shrinkage=0.05


Tree=19
num_leaves=30
num_cat=0
split_feature=4 7 7 7 7 7 7 14 7 14 7 7 7 7 14 2 2 4 2 2 7 2 4 7 7 2 9 2 7
split_gain=429.006 229.092 710.61 189.668 91.2111 118.984 302.608 65.7267 64.337 59.598 56.0317 100.372 59.6489 55.828 46.696 40.5256 39.6694 32.213 30.675 28.5639 28.3261 27.6598 26.7221 24.7418 24.4916 23.5502 23.2723 21.6841 21.5368
threshold=26.500000000000004 256.00000000000006 242.00000000000003 2164.5000000000005 25.500000000000004 307.50000000000006 242.00000000000003 79.125000000000014 2162.5000000000005 74.045000000000016 192.50000000000003 201.50000000000003 228.50000000000003 2165.5000000000005 50.062500000000007 120.98435138338193 108.30347145120926 22.500000000000004 117.80120340000001 105.89949898466857 256.00000000000006 110.22299925214364 46.500000000000007 28.500000000000004 2163.5000000000005 117.67062066273355 14154.500000000002 113.92747430528975 230.50000000000003
decision_type=8 2 2 2 2 2 2 10 2 10 2 2 2 2 8 8 8 10 10 10 2 10 8 2 2 10 2 10 2
left_child=4 2 10 8 -1 6 17 -7 15 -8 23 -12 18 -5 -4 19 26 -6 -13 -3 25 -14 24 -2 27 -11 -9 -10 -23
right_child=1 3 14 13 5 7 9 16 22 20 11 12 21 -15 -16 -17 -18 -19 -20 -21 -22 28 -24 -25 -26 -27 -28 -29 -30
leaf_value=0.013077557021427426 0.00031297809810948971 0.011778680628121763 -0.0028967896354609658 -0.014520665123593499 0.0084483589325737574 -0.00095066300543795708 0.0090368438322104873 0.029531501052544314 0.0071311952235001549 -0.017952280554776181 -0.0053838067087416154 0.0064156985959812453 0.0053791130803186402 0.0046392781048974433 -0.020452800251698315 -0.0068691630764910923 0.0098895527637344102 0.0026880164805158347 0.022512542576316432 0.0020723411674078919 0.00062979247901224795 -0.0043946938762592985 0.0053787854453710314 0.0063519777824910294 0.0062929678583627975 -0.0050343969888373523 0.013037491697117296 0.020406014833652737 0.0095013056421161743
leaf_count=138145 328228 33201 19076 98089 209814 56480 13513 16636 17306 116352 580840 37235 60398 18898 351086 51594 202457 187129 16693 319787 12194 118728 116885 90206 39632 20770 16702 40116 12778
internal_value=0 -0.0504784 -0.0961081 0.0436326 0.111337 0.0856278 0.0281929 0.188213 0.0855475 -0.239323 -0.0283626 -0.0598093 0.0490613 -0.215977 -0.388097 0.0366417 0.231952 0.11547 0.231928 0.060775 -0.28363 -0.00636839 0.173272 0.0327176 0.24941 -0.316738 0.428016 0.329919 -0.060006
internal_count=3340968 2350776 1615268 735508 990192 852047 559772 292275 618521 162829 1245106 826672 245832 116987 370162 404582 235795 396943 53928 352988 149316 191904 213939 418434 97054 137122 33338 57422 131506
shrinkage=0.05


Tree=20
num_leaves=30
num_cat=0
split_feature=7 7 7 18 7 7 7 15 12 18 12 7 12 12 11 12 12 11 12 18 12 7 12 12 12 15 12 12 12
split_gain=246.776 1044.45 217.911 98.4244 86.44 86.2867 85.9379 65.667 61.9285 43.763 41.9351 34.0555 32.9935 31.4872 30.9439 28.7906 28.3175 34.2775 24.5826 22.7063 22.5588 21.8761 21.1171 19.9917 18.7571 17.8174 16.6805 15.3996 42.5816
threshold=256.00000000000006 242.00000000000003 2164.5000000000005 98.40000000000002 192.50000000000003 201.50000000000003 228.50000000000003 55.130769230769239 105.88681340000001 528.50000000000011 117.50873090000002 16.500000000000004 122.5912354 119.1398889 45.500000000000007 116.24745640000002 110.49355940000001 48.500000000000007 124.50035340000001 288.20000000000005 118.66497890000001 2162.5000000000005 109.67538940000001 112.50192940000004 103.43013490000003 156.65833333333336 103.21639990000001 109.48679990000001 108.13122390000001
decision_type=2 2 2 8 2 2 2 10 2 8 2 2 2 2 10 2 2 10 2 8 2 2 2 2 2 8 2 2 2
left_child=1 4 8 18 9 -6 20 -4 26 11 24 -1 15 -11 -9 27 -8 23 -3 -19 22 -14 -7 -18 -5 -12 -2 28 -10
right_child=2 3 7 10 5 6 16 14 12 13 25 -13 21 -15 -16 -17 17 19 -20 -21 -22 -23 -24 -25 -26 -27 -28 -29 -30
leaf_value=0.0023746259880686529 0.0093848259545065305 -0.0011895278220070101 -0.011821726215376855 -0.011049358543341778 -0.0020686458735305244 0.018863326425116171 0.0062205820964841146 -0.0053091342476824363 -0.0026926032383741048 -0.0043232157322683927 -0.014565129698570914 0.0080235678584122897 -0.0057610688374697926 0.0070366645448414382 0.01177133083017967 0.0076117377032280074 -0.0075941853245453002 -0.010477782164493535 0.049954382485742355 0.0029474951266979942 0.022075148299983353 0.013477276292024033 0.0055256823799537886 0.003990010824541047 -0.020891821362768011 -0.0030645872255436646 0.018947836906922838 0.0028574809596450938 0.01624505725453132
leaf_count=183841 33688 33843 125499 28840 843507 16541 81019 22898 19750 84927 60244 288188 44502 34653 21616 362862 18637 49790 845 17944 19896 6774 36873 104378 373437 23195 38049 336239 28493
internal_value=0 -0.0401159 0.0807052 -0.34007 0.0269455 -0.00525429 0.079664 -0.148482 0.118621 0.0901998 -0.369764 0.118154 0.101989 -0.0191272 0.0609865 0.11237 0.0250159 -0.0187611 0.00924243 -0.13691 0.267055 -0.0596914 0.197495 0.0453596 -0.402996 -0.223902 0.292137 0.0731595 0.176782
internal_count=3340968 2300598 1040370 520404 1780194 1188585 345078 170013 870357 591609 485716 472029 798620 119580 44514 747344 271768 190749 34688 67734 73310 51276 53414 123015 402277 83439 71737 384482 48243
shrinkage=0.05


Tree=21
num_leaves=30
num_cat=0
split_feature=7 7 7 3 3 17 7 7 7 2 14 3 2 17 7 3 2 7 2 2 2 2 7 17 17 14 2 17 14
split_gain=222.358 959.617 196.281 153.617 96.4139 79.9256 72.1461 65.0562 80.7419 52.2435 52.0117 47.2337 34.1348 29.3504 32.1168 28.5997 28.3886 25.621 36.2565 35.3977 23.2079 22.7985 27.3909 20.3784 19.9738 19.5846 19.4168 26.6742 20.4994
threshold=256.00000000000006 242.00000000000003 2164.5000000000005 1.0000000180025095e-35 1.0000000000000001e+300 125.45000000000002 192.50000000000003 201.50000000000003 228.50000000000003 105.89949898466857 79.125000000000014 1.0000000000000001e+300 120.64153940000001 642.50000000000011 16.500000000000004 1.0000000180025095e-35 115.54805299920862 2162.5000000000005 120.84540490000002 113.92747430528975 100.73175218699201 111.34076353098617 230.50000000000003 177.25000000000003 1218.5000000000002 98.062500000000014 114.11973901157226 717.50000000000011 514.71875000000011
decision_type=2 2 2 10 8 10 2 2 2 8 10 8 10 8 2 10 10 2 8 10 8 8 2 10 10 8 10 8 10
left_child=1 4 9 5 6 12 13 -8 -9 -2 15 17 -3 14 -1 -4 -7 18 23 24 -12 -10 -23 25 -19 -11 27 -21 -29
right_child=2 3 10 -5 -6 16 7 8 21 11 20 -13 -14 -15 -16 -17 -18 19 -20 26 -22 22 -24 -25 -26 -27 -28 28 -30
leaf_value=0.0027266409821017678 0.013529419167724578 0.0021182396560571041 -0.0073091968259072874 -0.025862794366047017 -0.0073229359858457471 -0.015901696896691474 -0.0012170201660175104 0.013691545831919869 0.0061089002207090834 0.0094970280743851276 0.019646840822682018 -0.0041213792831451121 0.046307722130441459 0.00095135359041236011 0.0085788507381085507 -0.018817515572111563 -0.0079487563578467865 0.0054814292694023228 -0.0029580967893976435 -0.014716881872276519 -0.00094861013699120431 -0.0018478983162143036 0.011913258051454196 0.0063962524905204184 -0.0060086753956706349 -0.0013382126244423224 0.010115328604167969 0.078497283800364637 0.013387763519378648
leaf_count=163529 71366 24092 83947 171168 138218 243061 780241 66144 74586 21631 5937 60765 1846 140030 241129 41205 80237 56533 67307 734 38924 160252 16065 329814 20099 74349 165867 1029 863
internal_value=0 -0.0382206 0.0763556 -0.32856 0.0255564 -0.240983 0.0387429 0.00819889 0.0846753 0.112044 -0.142129 0.0967731 0.116466 0.0985882 0.126259 -0.221302 -0.275937 0.110113 0.0830131 0.161702 0.0435212 0.0299442 -0.0108493 0.104147 0.0484914 0.0224523 0.211226 0.724997 1.062
internal_count=3340968 2300598 1040370 520404 1780194 349236 1641976 1097288 317047 870357 170013 798991 25938 544688 404658 125152 323298 738226 493101 245125 44861 250903 176317 425794 76632 95980 168493 2626 1892
shrinkage=0.05


Tree=22
num_leaves=30
num_cat=0
split_feature=0 0 16 1 0 1 15 17 15 1 1 1 1 0 15 1 15 16 14 17 15 1 16 15 16 0 14 14 17
split_gain=979.862 421.879 117.33 87.0114 77.2414 68.0315 64.2552 66.4313 55.4424 44.9267 64.6407 43.8831 40.4191 40.3187 52.0846 34.0582 33.9977 32.1905 32.0536 44.3574 28.7339 28.6387 25.5794 24.6137 24.4598 24.0084 24.9449 21.6553 20.5108
threshold=6.0000000000000009 14.000000000000002 0.56356778011999353 32.471942215248369 35.500000000000007 40.107042945157431 244.05000000000004 366.25000000000006 15.929166666666669 38.407361659230851 30.862786441536972 23.908194425159078 19.516649071995278 38.000000000000007 75.275555555555556 24.102289100000004 428.21875000000006 0.83977736080539833 318.9251336898397 687.50000000000011 213.00038461538466 30.881385737355057 0.66669270833333349 17.335000000000004 0.7094939737223257 26.000000000000004 256.6969696969698 420.29166666666669 1260.5000000000002
decision_type=10 10 8 10 10 8 10 10 8 10 10 10 10 10 8 10 10 8 10 10 8 8 8 8 10 10 10 10 10
left_child=2 3 6 17 23 8 7 -1 -4 10 11 12 16 14 -6 -13 -10 -2 -9 -20 -12 -8 -14 -3 -15 -25 -27 -24 -21
right_child=1 4 5 -5 13 -7 21 18 9 -11 20 15 22 24 -16 -17 -18 -19 19 28 -22 -23 27 25 -26 26 -28 -29 -30
leaf_value=-0.0025186542831937405 0.035882993089654973 -0.031849571693585654 -0.0090055276122384138 0.060759290549463121 0.0088566419473028197 -0.0060636589654091706 0.0094266076892946457 -0.015554381864640747 0.025469140586582853 0.0040117775070860158 -0.0040547395448231856 0.01443277934457615 -0.0068004169140951504 0.0053990217111117367 -0.01927486368523524 0.0017299764379432123 -0.016724700147682958 -0.00314505394492733 0.0020603310438549699 -0.0096082329672488153 0.00089992053139051245 -0.0047232924793024688 -0.0017247384588579941 0.017874912476534978 0.014562635886879442 0.020497432301218397 0.050995845587756675 0.0097598770064210201 -0.025776724712143352
leaf_count=117496 36978 844 92437 18732 15165 272381 28543 165885 7781 235059 634872 20774 121405 62508 12857 814604 1962 2324 33866 35991 150812 28454 265497 63279 56282 6683 4488 17929 15080
internal_value=0 0.358619 -0.0361812 0.852425 0.234617 -0.0205968 -0.143634 -0.180806 -0.00955496 -0.00366142 -0.0137027 0.01505 -0.041089 0.147294 -0.0764759 0.0414519 0.332559 0.671027 -0.249208 -0.142496 -0.0609025 0.0510014 -0.052486 0.395265 0.197409 0.406889 0.672077 -0.0191618 -0.276231
internal_count=3340968 280140 3060828 58034 222106 2635513 425315 368318 2363132 2270695 2035636 1249952 414574 146812 28022 835378 9743 39302 250822 84937 785684 56997 404831 75294 118790 74450 11171 283426 51071
shrinkage=0.05


Tree=23
num_leaves=30
num_cat=0
split_feature=8 8 3 3 15 5 5 8 8 15 15 5 8 8 8 2 8 2 15 2 15 2 8 8 2 9 8 8 15
split_gain=361.018 834.349 134.519 109.603 77.0732 61.738 114.882 35.0107 29.5698 28.6199 27.326 26.1918 23.7465 32.103 31.7676 26.6981 22.0386 21.1824 20.7049 20.3365 20.084 19.547 17.2018 26.7809 20.8813 19.0763 16.7438 15.4664 20.188
threshold=14.500000000000002 11.500000000000002 1.0000000000000001e+300 1.0000000180025095e-35 15.929166666666669 2.5000000000000004 1.5000000000000002 2109.5000000000005 212.00000000000003 142.68333333333337 140.7568181818182 1.5000000000000002 240.50000000000003 1935.0000000000002 2404.5000000000005 108.92257640743976 1920.5000000000002 116.23383004140631 428.21875000000006 110.22299925214364 89.007142857142881 124.03557911816922 161.00000000000003 136.50000000000003 113.09358071500158 33769.500000000007 25.000000000000004 1903.5000000000002 345.12500000000006
decision_type=2 2 8 10 8 10 10 2 2 10 10 10 2 2 2 8 2 10 10 8 8 8 2 2 10 2 2 2 8
left_child=1 10 4 17 7 6 12 -2 -7 -8 -1 18 20 16 15 -15 27 -3 -12 -20 -6 -10 23 25 -24 -22 -11 -14 -29
right_child=2 3 -4 -5 5 8 9 -9 21 26 11 -13 13 14 -16 -17 -18 -19 19 -21 22 -23 24 -25 -26 -27 -28 28 -30
leaf_value=0.0031558762344050945 0.0013532508862009309 -0.015276980808413441 -0.0069079953785974009 -0.026096449918625732 -0.00026862487469981 0.004765105664011858 0.012231072969415641 -0.011869068763575243 2.8098060074547619e-05 0.022749433290947401 0.017562688781233567 0.0061952069931659956 0.00011829531543671186 0.0096108751679759748 -0.0025468142966063759 0.0031249845734835631 -0.0036643302785233992 -0.0079280243639577221 -0.015538748336077707 0.011565056108754534 0.0050266984613847859 -0.0068521655014177896 0.0035370469929668241 -0.0041316507496569612 0.011846336166277728 0.023277726578431579 0.0048955193175869707 0.012082698845464118 -0.0027982833948765403
leaf_count=70452 34970 244061 203905 154979 60911 133248 163672 72889 725976 5045 55111 60020 209153 79484 82265 327292 156124 67618 3571 8382 51767 48503 50848 35638 78081 5836 111394 25738 14035
internal_value=0 -0.151575 0.0303396 -0.350794 0.0428461 0.0498556 0.075583 -0.142135 0.00793603 0.190233 0.166595 0.218813 0.047326 0.0308033 0.0655529 0.0885028 -0.0122434 -0.271152 0.301345 0.0692255 0.0978442 -0.00760331 0.125583 0.0598294 0.173047 0.140498 0.114829 0.0253906 0.138569
internal_count=3340968 664194 2676774 466658 2472869 2365010 1457283 107859 907727 280111 197536 127084 1177172 894091 489041 406776 405050 311679 67064 11953 283081 774479 222170 93241 128929 57603 116439 248926 39773
shrinkage=0.05


Tree=24
num_leaves=30
num_cat=0
split_feature=0 8 8 0 8 7 7 7 0 7 8 0 8 7 18 7 7 8 8 0 0 0 0 0 8 8 7 18 7
split_gain=881.605 720.965 1447.36 380.759 157.485 73.4619 83.0838 119.448 67.9723 62.8034 59.3892 73.2361 55.9744 55.8821 54.5621 49.471 46.5241 43.7992 41.4583 61.2116 51.7653 72.5871 109.608 51.7993 34.4036 67.782 34.3177 33.0002 30.9815
threshold=6.0000000000000009 12.500000000000002 11.500000000000002 14.000000000000002 17.500000000000004 2164.5000000000005 256.00000000000006 192.50000000000003 35.500000000000007 312.00000000000006 229.00000000000003 47.000000000000007 1920.5000000000002 308.50000000000006 89.40000000000002 229.50000000000003 215.00000000000003 240.50000000000003 161.00000000000003 62.500000000000007 20780.500000000004 20059.500000000004 140.00000000000003 20121.500000000004 1925.5000000000002 2028.0000000000002 299.50000000000006 528.50000000000011 242.00000000000003
decision_type=10 2 2 10 2 2 2 2 10 2 2 10 2 2 10 2 2 2 2 10 10 10 10 10 2 2 2 8 2
left_child=1 2 -1 4 -2 6 7 27 9 12 18 -12 13 16 -7 -6 -5 28 19 -10 21 22 -21 -23 -19 -26 -17 -3 -9
right_child=3 5 -4 8 15 14 -8 17 10 -11 11 -13 -14 -15 -16 26 -18 24 -20 20 -22 23 -24 -25 25 -27 -28 -29 -30
leaf_value=0.0075718233785528237 0.048278948772573882 0.0050616171196509047 -0.028676933277433897 0.009585608117324812 -0.033910207755938969 -0.010910551388136302 0.0038585871870747408 0.0016204625482296045 -0.005696104640948046 -0.017415971892989098 -0.0088537104382931647 0.0099965375917435775 0.026990277325648349 0.05834626247095992 0.0031744141630743235 0.025999708300521993 -0.03206677095210609 -0.005521024109848365 0.021547107533661767 0.067225235626417801 -0.011282157610913952 0.11855552881060238 -0.027597864426638849 0.015870689233322955 0.003586169939365651 -0.0051012073618182559 -0.021818352451341595 -0.0012410866049476254 -0.019168905254083546
leaf_count=184875 47290 394289 401191 20257 2076 120324 681399 291191 20222 4456 40271 44560 45375 1616 41227 7042 3590 441750 31654 1820 2855 1719 2858 853 167900 218994 1626 108196 9492
internal_value=0 -0.0346296 -0.266251 0.337306 0.799036 0.0098601 0.0184946 -0.00706381 0.219425 0.368453 0.137565 0.0263346 0.412203 0.175415 -0.135068 0.132344 0.0894347 -0.0451499 0.285248 0.101132 0.509987 0.798405 0.314115 1.69491 -0.07007 -0.02552 0.337624 0.0741868 0.0217175
internal_count=3340968 3060828 586066 280140 58034 2474762 2313211 1631812 222106 75294 146812 84831 70838 25463 161551 10744 23847 1129327 61981 30327 10105 7250 4678 2572 828644 386894 8668 502485 300683
shrinkage=0.05


Tree=25
num_leaves=30
num_cat=0
split_feature=10 8 8 8 8 19 10 8 19 12 12 8 17 8 8 12 8 10 10 10 17 19 17 17 19 8 8 12 8
split_gain=467.359 224.756 161.953 79.8768 137.215 60.5025 52.9656 46.7874 37.0432 29.3985 46.5979 30.3605 30.1066 24.6385 24.5907 22.8118 20.1746 30.8249 19.9302 19.8048 19.2063 18.277 18.0692 16.9895 16.9639 19.3767 16.9614 16.403 15.6471
threshold=35.500000000000007 19.500000000000004 11.500000000000002 10.000000000000002 12.500000000000002 99.300000000000011 20.500000000000004 229.00000000000003 100.50000000000001 109.48679990000001 112.17751490000002 2404.5000000000005 687.50000000000011 2110.5000000000005 2103.5000000000005 117.23500340000001 221.50000000000003 65.500000000000014 78.500000000000014 29.500000000000004 255.30000000000004 97.500000000000014 1993.5000000000002 1723.8350000000003 99.300000000000011 1900.5000000000002 136.50000000000003 117.50873090000002 1927.5000000000002
decision_type=8 2 2 2 2 8 10 2 10 2 2 2 10 2 2 2 2 10 10 10 8 10 8 10 8 2 2 2 2
left_child=1 2 -1 22 27 9 14 8 16 11 -11 13 18 21 -3 28 -7 -18 -12 -4 -9 26 -2 -22 -17 -26 -6 -5 -8
right_child=3 6 19 4 5 7 15 20 -10 10 12 -13 -14 -15 -16 24 17 -19 -20 -21 23 -23 -24 -25 25 -27 -28 -29 -30
leaf_value=0.004221360639271656 0.0098335282205841909 -0.0015161010096734909 -0.019233515283478778 -0.013744419335621462 0.017190561124685793 0.0013256494126996951 -0.0041384860377712855 -0.0019560441307019893 0.0098303095381788667 -0.0074626468745231074 0.0033062889978878948 -0.0060278710972298914 -0.0033829503178917498 0.027442924426095663 -0.00967389743395701 0.004746302491999174 -0.0029426948128029561 0.023158132438001508 0.0083527569717202557 -0.011635183168252725 0.0009835634965056966 0.026182651903007271 -0.0010109266646801253 -0.0060356522135647898 0.0016100685161251575 0.029237209094107028 0.0064422790340240193 -0.0038635129894686116 0.0039802394878260374
leaf_count=41601 130651 74270 299661 84087 14761 221144 56544 384895 82092 41747 227796 14859 48863 6454 111096 31377 7659 9952 123255 64451 973386 5087 16599 36606 4459 7376 141062 27491 51687
internal_value=0 -0.166275 -0.295122 0.0359115 0.0266727 0.0360326 -0.0413504 0.0162536 0.0846396 0.089802 0.0608416 0.156259 0.0816124 0.179809 -0.122639 0.0504019 0.0435703 0.244118 0.102364 -0.357131 -0.000191989 0.163921 0.173176 0.0145149 0.17925 0.38818 0.151288 -0.221571 -0.0026376
internal_count=3340968 742522 405713 2598446 2451196 2339618 336809 1715734 320847 623884 441661 182223 399914 167364 185366 151443 238755 17611 351051 364112 1394887 160910 147250 1009992 43212 11835 155823 111578 108231
shrinkage=0.05


Tree=26
num_leaves=30
num_cat=0
split_feature=7 7 7 18 7 7 7 13 12 12 12 18 2 12 2 13 12 13 12 7 13 12 11 13 2 2 13 2 2
split_gain=161.566 689.16 137.632 76.7282 61.4302 60.7042 56.919 48.349 49.3401 44.9273 33.2725 32.035 30.4803 28.3423 24.8446 53.0471 30.7176 28.304 24.1504 23.391 22.9794 21.2065 29.9166 26.4571 23.0329 20.2068 19.9569 25.2838 27.4007
threshold=256.00000000000006 242.00000000000003 2164.5000000000005 98.40000000000002 192.50000000000003 201.50000000000003 228.50000000000003 40.332535600000014 105.88681340000001 100.99831340000001 117.50873090000002 528.50000000000011 115.63935550580437 119.1398889 113.92747430528975 22.313916100000004 113.74466840000001 22.313916100000004 113.25396740000001 16.500000000000004 29.803483600000003 110.49355940000001 48.500000000000007 30.595803100000005 112.48215460833525 119.43958016978441 30.595803100000005 111.96097522238679 108.67460343565715
decision_type=2 2 2 8 2 2 2 2 2 2 2 8 8 2 10 2 2 2 2 2 2 2 10 2 8 10 2 10 8
left_child=1 4 7 -3 11 26 25 8 -2 -4 -5 19 -12 -13 16 -16 18 -18 -10 -1 -15 23 24 -8 -23 -7 -6 28 -28
right_child=2 3 9 10 5 6 21 -9 14 -11 12 13 -14 20 15 -17 17 -19 -20 -21 -22 22 -24 -25 -26 -27 27 -29 -30
leaf_value=0.0018722793727885597 0.013416367116344127 0.0010965153664469673 0.015091341019634899 -0.017344962015095198 -0.00026976339489380484 0.0078895509496297103 0.0085448913555673817 -0.0029999430111837624 0.0022165192983076417 -0.0075856480960750598 0.048708703019946009 -0.0042687614753804462 -0.0099666829402731832 0.025795248640543535 0.045359537083309059 0.0058498600909497054 -0.027200620718523544 -0.001991089907074777 0.0110856993236324 0.0065185048970217464 0.0030550896048470925 -0.0088142751235292631 -0.006555893895464667 -0.0044292605259845276 0.0037727484098437469 0.02023311849718902 -0.0036191059811517736 -0.0019911084146877556 -0.014205573337089559
leaf_count=183841 63582 34688 8942 402277 403451 58336 58450 79814 248763 161071 812 84927 82627 4920 2892 416878 6338 17295 34795 288188 29733 18126 67734 22569 104889 14974 69453 324747 45856
internal_value=0 -0.03294 0.0644705 -0.287462 0.0195927 -0.00764227 0.062866 0.0936239 0.107934 -0.121117 -0.315573 0.0723801 -0.182934 -0.021219 0.0925966 0.123315 0.0484911 -0.174724 0.0666941 0.0959079 0.129505 0.0179176 -0.0201613 0.102924 0.0393529 0.21153 -0.0381774 -0.0691232 -0.154493
internal_count=3340968 2300598 1040370 520404 1780194 1188585 345078 870357 790543 170013 485716 591609 83439 119580 726961 419770 307191 23633 283558 472029 34653 271768 190749 81019 123015 73310 843507 440056 115309
shrinkage=0.05


Tree=27
num_leaves=30
num_cat=0
split_feature=0 0 4 2 13 4 13 2 13 13 2 4 5 5 0 1 13 2 0 4 1 2 2 2 0 13 2 2 4
split_gain=800.028 370.46 319.918 88.468 138.035 80.9136 72.2291 54.4713 51.4614 61.162 47.405 46.8377 39.0583 39.23 33.3916 31.7872 37.5316 28.6827 27.5712 27.651 26.2143 25.382 24.3316 23.8343 22.9654 19.2435 16.9346 16.1717 16.0881
threshold=6.0000000000000009 14.000000000000002 26.500000000000004 115.04659788077009 30.595803100000005 22.500000000000004 33.840249600000014 101.03564466873367 19.518387600000008 27.493971600000005 117.90867945510297 22.500000000000004 2.5000000000000004 1.0000000180025095e-35 35.500000000000007 34.559149481323182 33.652147600000013 115.29822207352676 38.000000000000007 34.500000000000007 24.102289100000004 115.98999898515159 117.80120340000001 101.03564466873367 35.500000000000007 41.290139100000012 118.6800693486971 115.52398949623957 27.500000000000004
decision_type=10 10 8 10 2 8 2 8 2 2 8 10 10 10 10 8 2 8 10 10 10 10 10 8 10 2 10 8 10
left_child=2 6 11 4 7 24 10 -4 -9 -10 -2 -1 13 -5 -7 16 -6 -8 -16 26 21 -15 -13 -17 -3 -24 -20 -19 -22
right_child=1 5 3 12 15 14 17 8 9 -11 -12 22 -14 20 18 23 -18 27 19 -21 28 -23 25 -25 -26 -27 -28 -29 -30
leaf_value=0.0054904207651548017 0.038224591259819744 0.03397704736695175 0.012991370782406021 -0.0081189481710293356 -0.015580812088625662 0.013415754768291247 0.071636926641929596 0.017535116047398852 -0.0066805953484134709 -0.00038805617199444263 0.014533996194961771 -0.00073640654257683253 -0.0042440395951846115 -0.005563835881512936 -0.0052981749505478203 -0.0074278512393516826 -0.0049686306701842353 -0.0124338828487396 0.006245170574455363 -0.0048801298708637721 0.002815533722668503 0.025476932322366488 0.00632067413436334 -0.016022365093177168 0.016967585511108964 -0.0053496253505574652 0.015998476699235882 0.04573256744161884 -0.00092936643334387266
leaf_count=489501 29338 12387 18948 62547 59161 62907 7426 9154 454926 274326 12094 308879 382680 4424 24809 49747 140664 422 62862 17061 197749 7307 100370 176353 17965 17672 24115 8754 306420
internal_value=0 0.318959 -0.0332577 -0.0788716 -0.119103 0.203309 0.770776 -0.0663933 -0.076261 -0.0835901 0.621137 0.0671314 -0.0330838 0.000469512 0.153018 -0.221584 -0.158286 1.12063 0.0927382 0.136335 0.0181194 0.310584 0.0168418 -0.27983 0.488705 0.0936913 0.181557 0.859238 0.0108358
internal_count=3340968 280140 3060828 2144406 1183279 222106 58034 757354 738406 729252 41432 916422 961127 578447 191754 425925 199825 16602 128847 104038 515900 11731 426921 226100 30352 118042 86977 9176 504169
shrinkage=0.05


Tree=28
num_leaves=30
num_cat=0
split_feature=21 21 21 21 10 21 10 10 10 21 16 3 3 10 21 3 21 2 21 3 10 2 2 10 3 2 2 2 2
split_gain=2130.75 467.24 165.398 218.165 158.064 120.021 106.76 54.6341 53.966 43.1938 32.589 29.0953 27.9135 26.306 22.9693 20.6543 20.0973 19.5271 18.9998 18.8778 18.8111 18.7923 18.4891 18.216 17.2496 19.666 15.9555 15.5161 14.7098
threshold=0.054967038450282182 0.017705276269706315 0.093404759261117326 2.245740692506319 30.500000000000004 0.2918258993143576 28.500000000000004 32.500000000000007 44.500000000000007 0.0071464005824675549 0.6461828393385044 1.0000000000000001e+300 1.0000000000000001e+300 49.500000000000007 0.039955855964639526 1.0000000180025095e-35 1.7187258807264587 116.20320685904589 0.0063182610116375671 1.0000000180025095e-35 121.50000000000001 112.33553815 121.26913040000002 94.500000000000014 1.0000000180025095e-35 115.83076190000001 119.51312819536413 103.26707240000002 100.73175218699201
decision_type=8 10 10 10 8 10 10 10 8 10 8 8 8 8 10 10 10 10 10 10 10 10 10 10 10 10 10 10 10
left_child=1 6 8 5 15 7 10 19 24 -8 -1 14 23 -7 28 17 -15 -3 27 -4 22 -10 -5 -9 25 -2 -20 -12 -6
right_child=2 4 3 20 11 13 9 12 21 -11 18 -13 -14 16 -16 -17 -18 -19 26 -21 -22 -23 -24 -25 -26 -27 -28 -29 -30
leaf_value=-0.0047643160089038857 -0.0092048206710218222 -0.0052832904150872861 -0.012529675218645155 0.0012975920026099214 0.018692935824535229 -0.019419918675919304 0.02132036372232525 -0.0080116600505051715 -0.0041356822707721425 0.015198745919340782 0.046056291775492475 -0.0014411761249702097 -0.015851639094258546 -0.014480309492649002 0.0042928973818740206 -0.010451841334654198 -0.0017927596467442871 0.004764062019322877 0.0016716162430495353 -0.022466777659716577 0.017057310400593977 0.00028669674986257722 0.018056195954208876 -0.003797112334041937 -0.014351866523626969 0.0020044302805257122 0.023529634264316233 0.014196499936004399 0.0077623757912718382
leaf_count=31551 83951 94011 82336 87210 12384 172414 175687 363494 171124 266277 1567 52238 43482 299532 255426 67219 14535 31941 31698 42805 9418 257285 7363 155942 55774 25898 4013 18514 425879
internal_value=0 0.176615 -0.156845 -0.200563 0.0863696 -0.228329 0.320355 -0.171845 -0.064376 0.35438 0.0941833 0.123826 -0.147 -0.312489 0.134119 -0.104151 -0.277669 -0.0499205 0.188234 -0.317587 0.0820593 -0.0289543 0.0527563 -0.134232 -0.18032 -0.127207 0.0889733 0.346342 0.161654
internal_count=3340968 1468405 1872563 1278531 939098 1174540 529307 688059 594032 441964 87343 745927 562918 486481 693689 193171 314067 125952 55792 125141 103991 428409 94573 519436 165623 109849 35711 20081 438263
shrinkage=0.05


Tree=29
num_leaves=30
num_cat=0
split_feature=10 7 3 3 7 7 7 7 13 7 13 7 7 14 7 2 7 3 13 13 2 7 10 10 7 10 2 14 13
split_gain=355.517 231.941 121.203 106.694 92.7875 67.56 58.8926 46.6507 45.972 47.4174 41.4991 41.2385 55.6586 35.2275 45.1253 35.002 27.5999 37.6054 22.5875 39.0215 22.0425 21.8147 21.7287 19.1554 16.8011 19.5612 18.0864 16.4436 17.8924
threshold=35.500000000000007 233.50000000000003 1.0000000000000001e+300 1.0000000180025095e-35 307.50000000000006 192.50000000000003 280.50000000000006 2164.5000000000005 19.518387600000008 242.00000000000003 39.526699600000008 201.50000000000003 215.00000000000003 58.083333333333336 256.00000000000006 105.89949898466857 256.00000000000006 1.0000000180025095e-35 30.218654600000004 23.903482100000005 120.62171159443092 2164.5000000000005 98.500000000000014 28.500000000000004 308.50000000000006 46.500000000000007 121.49834551022501 864.63888888888903 30.735556100000007
decision_type=8 2 8 8 2 2 2 2 2 2 2 2 2 10 2 8 2 10 2 2 10 2 10 10 2 8 10 10 2
left_child=1 -1 4 13 5 18 -5 -8 -7 11 15 -10 -13 20 23 22 17 -11 19 -2 -3 24 -6 -15 -17 -26 -27 28 -20
right_child=2 3 -4 6 10 8 7 -9 9 16 -12 12 -14 14 -16 21 -18 -19 27 -21 -22 -23 -24 -25 25 26 -28 -29 -30
leaf_value=0.0029354631609940581 0.00070812144050916694 -0.0024494383539877158 -0.0065865078519045592 -0.022084718949502445 0.0098517791312637531 0.029730166565401169 0.00527861063269797 -0.015157588509070924 -0.0012990399863955834 -0.0052838271708810555 -0.0015647381238639976 0.011744883349045443 0.00097250290743219024 -0.013760073031326384 0.0029682558127248591 0.015092416898683642 0.00026380954759310931 -0.020092513406565635 -0.0057954824784280951 0.010690500555652981 0.023103003462866437 -0.0049494986276286991 0.025046080422016778 -0.0044204152692182558 -0.0027572590287182684 0.0052816205508471699 0.027599151736342226 -0.0093335622168312475 0.003633971676290244
leaf_count=172036 62841 84242 197368 173985 60338 3905 17129 52645 760968 67946 91697 53487 247231 171013 26776 16411 39660 35859 21550 100164 3899 22929 9389 40797 31801 533877 2995 11928 226102
internal_value=0 -0.147038 0.0308278 -0.229518 0.042605 0.0144392 -0.355287 -0.183293 -0.0110223 -0.0136827 0.0984246 0.000130239 0.062097 -0.142344 -0.193517 0.114581 -0.134611 -0.202396 0.0820655 0.139412 -0.0229546 0.0987261 0.240429 -0.23764 0.105763 0.10004 0.108611 0.0453123 0.0561035
internal_count=3340968 742522 2598446 570486 2401078 1631641 243759 69774 1209056 1205151 769437 1061686 300718 326727 238586 677740 143465 103805 422585 163005 88141 608013 69727 211810 585084 568673 536872 259580 247652
shrinkage=0.05


Tree=30
num_leaves=30
num_cat=0
split_feature=21 21 21 21 8 8 8 8 8 8 21 21 8 8 21 21 1 21 1 2 2 1 2 14 2 21 8 8 14
split_gain=1924.29 444.047 152.579 196.819 88.1502 217.706 87.2648 203.812 53.0997 134.405 49.9924 43.9924 43.0982 41.1479 38.3139 33.918 29.9891 29.6532 25.2897 24.9789 23.2329 22.6165 25.8427 21.9872 21.9562 21.5495 21.2574 20.6172 20.3406
threshold=0.060078355487086794 0.017705276269706315 3.3302182984680031 0.2332581282121397 10.000000000000002 14.500000000000002 10.000000000000002 14.500000000000002 12.500000000000002 11.500000000000002 1.7187258807264587 0.078072347611348805 11.500000000000002 196.50000000000003 0.01254432277936378 0.037356981258216446 30.255815639832299 0.43881832599259191 21.773631164364598 115.04659788077009 110.53493061259063 22.605624084297371 116.23383004140631 20.366666666666667 113.54044547745112 0.0029591724107431161 11.500000000000002 235.50000000000003 234.26785714285717
decision_type=8 10 10 10 2 2 2 2 2 2 10 8 2 2 10 10 10 10 10 10 10 10 10 8 10 10 2 2 10
left_child=1 6 3 8 28 26 20 12 9 -2 17 -10 -8 -4 18 -7 24 -5 -9 -18 -1 -22 -23 -17 -13 -20 -6 -21 -3
right_child=2 4 13 10 5 15 7 14 11 -11 -12 16 -14 -15 -16 23 19 -19 25 27 21 22 -24 -25 -26 -27 -28 -29 -30
leaf_value=0.010156252064350278 0.00076819205564745952 0.0064206737471664277 0.016340686062926948 -0.011864300432535392 0.0023522011017340022 0.0069193217352091626 0.016001001852731022 0.040977847300668703 -0.00073467851165631194 -0.018449574523058215 -0.0036134169937564724 -0.0053916214630076124 -0.010545606074464765 0.00070486201394157804 0.01135911138957098 -0.0097596902626358884 -0.012595324866793826 -0.016946328016560604 0.021952914113585395 -0.00092817825859715746 0.068938375376184829 0.0029226059524972529 0.037445618917292277 0.003267729349563213 0.0011574432065925096 0.015971204076138518 -0.011253523515145742 -0.0082125528725465486 0.021572841408906914
leaf_count=2978 57439 11157 26942 254666 13502 422131 6774 4009 204999 158103 51576 256718 53127 50714 126826 17077 112215 307683 69695 53013 1509 2044 13047 382274 70125 249298 155394 178679 27254
internal_value=0 0.157959 -0.158308 -0.172544 0.0758028 0.0624498 0.298969 0.281587 -0.118834 -0.225768 -0.272392 -0.0980071 -0.125869 0.119087 0.318684 0.0990798 -0.124406 -0.291884 0.352949 -0.167869 0.658479 0.739871 0.662111 0.0563738 -0.0788869 0.346571 -0.194643 -0.12935 0.348566
internal_count=3340968 1558096 1782872 1705216 1028789 990378 529307 509729 1091291 215542 613925 875749 59901 77656 449828 821482 670750 562349 323002 343907 19578 16600 15091 399351 326843 318993 168896 231692 38411
shrinkage=0.05


Tree=31
num_leaves=30
num_cat=0
split_feature=4 10 10 3 3 18 18 12 12 10 4 10 12 18 12 4 12 12 12 12 10 12 12 18 18 3 4 10 18
split_gain=329.564 253.279 62.3794 60.5247 48.8439 37.6829 32.5138 30.6822 24.5823 23.245 22.2985 20.1333 19.0518 18.2145 27.7432 26.1031 23.3448 18.5842 35.5117 21.0877 17.116 21.7779 15.997 15.8072 14.2615 14.8548 14.0378 12.3332 12.0826
threshold=24.500000000000004 44.500000000000007 32.500000000000007 1.0000000000000001e+300 1.0000000180025095e-35 156.50000000000003 99.945000000000007 103.2564119 114.15967140000002 20.500000000000004 20.500000000000004 29.500000000000004 112.58892540000001 347.00000000000006 117.23500340000001 31.500000000000004 119.84389940000001 109.48679990000001 108.13122390000001 110.94465140000001 66.500000000000014 125.75067540000002 111.32155190000002 345.90000000000003 398.50000000000006 1.0000000180025095e-35 20.500000000000004 43.500000000000007 107.95000000000002
decision_type=8 10 8 8 10 10 10 2 2 10 10 8 2 10 2 10 2 2 2 2 10 2 2 8 10 8 10 10 8
left_child=2 5 4 13 6 9 12 -7 11 -2 23 -9 26 15 17 -3 -16 18 -15 -19 -18 -22 -21 -4 25 27 -1 -10 -6
right_child=1 3 10 -5 28 7 -8 8 24 -11 -12 -13 -14 14 16 -17 20 19 -20 22 21 -23 -24 -25 -26 -27 -28 -29 -30
leaf_value=0.013855106794738725 -0.0083206378853289253 0.00059269221132322977 0.011090845468931269 -0.0060513244373771591 -0.003406058592765264 6.3469107874267202e-05 -0.0021992740981955235 -0.016712660180081343 -0.0065660604659697162 -0.00201245365926817 0.005509915722425718 -0.0093945562438235725 0.017293224897786733 0.00080206297811041848 0.0076935382947188758 -0.0029134161966852855 -0.010658403848598124 -0.014415095760823267 0.015862685297678793 0.021741842195311171 0.001326362628582636 0.029214479314580596 -0.0012945413264212795 0.0053612323206867554 0.00082671238599550407 -0.014121787538147374 -0.0048689931243539597 0.017394712100994511 -0.01440599671408199
leaf_count=7363 148605 902300 157991 182658 20336 31951 60188 166724 55379 137332 394771 82732 21437 91287 115235 290585 11521 13502 16367 2836 58794 2845 183147 66306 20655 49662 11233 2247 34979
internal_value=0 -0.0381276 0.113837 -0.00278853 -0.0186144 -0.161651 0.0736549 -0.210856 -0.231341 -0.102147 0.138716 -0.278804 0.213652 0.00855536 0.0406069 -0.00524545 0.0991522 0.00237014 0.0676267 -0.0355651 0.0119857 0.0519981 -0.0179689 0.188017 -0.150215 -0.186001 0.0529501 -0.10685 -0.194972
internal_count=3340968 2566364 774604 1871077 155536 695287 100221 409350 377399 285937 619068 249456 40033 1688419 495534 1192885 188395 307139 107654 199485 73160 61639 185983 224297 127943 107288 18596 57626 55315
shrinkage=0.05


Tree=32
num_leaves=30
num_cat=0
split_feature=0 0 7 7 7 15 15 7 7 0 7 7 7 7 0 7 7 15 5 7 5 15 15 15 16 16 5 0 0
split_gain=764.532 362.531 253.985 1254.33 127.623 122.323 104.538 91.3745 87.3853 51.2996 54.6383 44.278 39.6948 52.5321 117.443 36.1597 65.7543 29.46 25.9052 25.021 24.9822 23.8236 22.902 30.4369 21.9728 21.6845 20.7604 17.6144 32.241
threshold=6.0000000000000009 14.000000000000002 256.00000000000006 242.00000000000003 242.00000000000003 42.916666666666679 25.958333333333339 299.50000000000006 192.50000000000003 35.500000000000007 312.00000000000006 201.50000000000003 201.50000000000003 228.50000000000003 47.000000000000007 308.50000000000006 215.00000000000003 230.51666666666668 2.5000000000000004 179.50000000000003 1.0000000180025095e-35 159.60625000000002 59.516666666666673 147.30303030303034 0.70387087346946242 0.86165195733391098 1.0000000180025095e-35 20150.500000000004 20078.500000000004
decision_type=10 10 2 2 2 10 8 2 2 10 2 2 2 2 10 2 2 8 8 2 10 10 10 10 10 10 10 10 10
left_child=2 4 3 8 -2 -5 -4 22 17 10 15 20 19 -14 -15 16 -3 25 26 -11 -10 -16 -6 -24 -13 -1 -8 28 -23
right_child=1 9 6 5 7 -7 18 -9 11 12 -12 24 13 14 21 -17 -18 -19 -20 -21 -22 27 23 -25 -26 -27 -28 -29 -30
leaf_value=0.0052382481961733658 -0.030456752336194499 0.018577878487661331 -0.0088398764151697423 -0.0028497867717372301 0.022328120413521956 -0.025803430791224852 -0.0024586276940936885 -0.022374203056427663 -0.012448835135211325 0.0042709648303920489 -0.017317004692664183 0.0046489191199847847 0.023647013221462634 -0.014467175973043523 0.0093628808783251007 0.046453239220365594 -0.024732790333309655 -0.0010247782898704669 0.0012339363298687067 -0.0096814922174313159 -0.0030633656532542426 0.024660382252845007 0.054682949829457088 0.037762633396509204 -0.00091295771539203732 -0.0016207020767305697 0.005267049100443383 0.00019249604068445863 0.086861419956621638
leaf_count=346647 2322 63091 101483 32182 4761 418884 42477 1917 36364 43476 4456 113129 19042 22017 28493 3350 4397 141362 333112 19141 730656 11496 22207 26827 200721 53110 510701 2330 817
internal_value=0 0.310796 -0.032626 -0.0766364 0.755788 -0.472753 0.0500484 0.818664 -0.00712104 0.196558 0.323499 -0.041572 0.125293 0.213411 0.117922 0.36295 0.328504 0.0583162 0.0690397 0.00201481 -0.0691479 0.30156 0.869261 0.913162 0.0216504 0.0862677 0.095143 0.498193 0.588625
internal_count=3340968 280140 3060828 2073055 58034 451066 987773 55712 1621989 222106 75294 1080870 146812 84195 65153 70838 67488 541119 886290 62617 767020 43136 53795 49034 313850 399757 553178 14643 12313
shrinkage=0.05


Tree=33
num_leaves=30
num_cat=0
split_feature=0 0 3 2 2 19 2 19 0 2 0 19 19 0 0 19 0 0 0 0 2 11 2 19 11 19 19 2 2
split_gain=680.528 307.233 96.4889 72.584 56.9526 47.1545 46.5386 45.5051 44.7978 41.9624 26.2253 37.599 25.5812 22.1921 92.7448 21.1251 20.7406 20.5115 20.4795 47.5424 19.6093 19.3322 19.236 20.3298 18.4841 17.0935 16.0578 15.7276 19.7055
threshold=6.0000000000000009 14.000000000000002 1.0000000000000001e+300 115.04659788077009 108.92257640743976 100.50000000000001 111.96097522238679 188.50000000000003 35.500000000000007 116.35773517275859 38.000000000000007 55.100000000000009 30.250000000000004 20149.000000000004 20031.500000000004 13.450000000000001 400.50000000000006 21366.500000000004 140.00000000000003 62.500000000000007 113.64213005511145 34.500000000000007 124.03557911816922 23.300000000000004 35.500000000000007 194.50000000000003 178.10000000000002 108.12257433838876 105.86387683974333
decision_type=10 10 8 10 8 10 10 10 10 8 10 8 10 10 10 8 10 10 10 10 10 10 10 8 10 10 8 10 10
left_child=2 9 3 4 27 6 -6 -7 -3 21 11 -10 16 14 18 -8 -12 -18 19 -14 -17 -2 23 -5 -11 -9 -23 28 -1
right_child=1 8 -4 22 5 7 15 25 10 24 12 -13 13 -15 -16 20 17 -19 -20 -21 -22 26 -24 -25 -26 -27 -28 -29 -30
leaf_value=0.00017223784116815539 -0.013586976656878361 0.01512645076273827 -0.0084812145624039003 -0.0030755955778896901 -0.0075413951615933136 -0.014480852071512071 -0.0083983264401026013 0.02327161490536668 0.0064544766202212587 -0.013868577790807565 -0.0074580108689416393 -0.018046522916561319 0.0097216580761796349 -0.0039983079096269436 0.063898250734854362 -0.0002704022992095541 0.024557494276395832 -0.014296571111606962 -0.0046670527414959199 0.051076961362377916 -0.0067063537630297557 0.044825350656305385 -0.0043399763779151728 0.0014769109644225467 0.025527895159508703 -0.0041466809675741465 0.024826577417627799 0.0041704159835393743 -0.005000835505580223
leaf_count=410751 578 75294 235901 131615 222107 116588 55885 2252 16712 1088 18016 11310 69721 10070 3143 443146 4844 1885 8798 2313 63350 31053 78372 1047230 19813 69096 5502 76442 108093
internal_value=0 0.290797 -0.0310823 -0.0210867 -0.0523241 -0.0855001 -0.0636684 -0.189638 0.185002 0.692082 0.118397 -0.0639754 0.157445 0.201854 0.233788 -0.0325649 -0.0324954 0.271932 0.193006 0.226412 -0.0202361 0.821994 0.0146565 0.0209068 0.46853 -0.0628387 0.839518 -0.00283718 -0.0159248
internal_count=3340968 280140 3060828 2824927 1567710 972424 784488 187936 222106 58034 146812 28022 118790 94045 83975 562381 24745 6729 80832 72034 506496 37133 1257217 1178845 20901 71348 36555 595286 518844
shrinkage=0.05


Tree=34
num_leaves=30
num_cat=0
split_feature=4 4 2 12 5 2 2 5 17 12 2 2 2 4 17 12 2 2 2 12 2 12 2 17 12 12 2 17 2
split_gain=295.102 48.7936 44.4759 46.6441 30.5137 23.3568 25.3583 21.1742 25.2492 25.5733 21.8669 20.9571 18.2687 16.7642 15.7537 13.8814 37.3057 24.6233 13.056 13.0102 12.2003 11.863 11.2395 12.8848 11.0732 13.5175 11.9453 22.0098 16.898
threshold=26.500000000000004 22.500000000000004 115.04659788077009 105.85623840000001 2.5000000000000004 105.66543785530637 103.34294440000002 1.5000000000000002 479.40000000000003 116.50404590000002 118.81847672578847 103.23009354773181 117.80120340000001 36.500000000000007 1197.5000000000002 108.05231040000002 108.92257640743976 112.14142011710256 108.30347145120926 112.50192940000004 108.12257433838876 121.31952390000002 117.96936952370861 417.45000000000005 113.65205440000001 115.83722090000002 113.76192727666175 1129.0000000000002 114.11973901157226
decision_type=8 10 10 2 10 10 8 10 8 2 10 10 10 10 10 2 8 10 8 2 10 2 10 8 2 2 10 10 10
left_child=1 14 3 5 7 6 11 8 13 -10 -11 -2 18 -4 -1 -5 -17 -18 20 -20 -3 -14 23 -9 -19 26 -26 -28 -29
right_child=2 12 4 15 -6 -7 -8 22 9 10 -12 -13 21 -15 -16 16 17 24 19 -21 -22 -23 -24 -25 25 -27 27 28 -30
leaf_value=0.007008367393597963 -0.0013539236113507382 0.0028733776936092762 -0.00048249559751031146 -0.009480427333449077 -0.0027585114628292367 0.0057274468178418496 -0.0066051758744041901 0.018083289622375039 -0.0032245019629898244 0.010998471379693809 0.0026456974449929754 0.0064854761140740796 0.006523990355090041 -0.0067334607369764323 -0.00099008077787213536 0.0018360820568081788 -0.0083278224543193845 -0.0033533461184075265 -0.0045064463555434461 0.00095151271687909608 0.016701789887885451 -0.0019645099591613924 0.0029721827353932084 0.0021246140516170777 -0.014016461971236608 0.011258916028258958 -0.0075749091462851874 0.030064457475688755 -0.016698942649626142
leaf_count=503539 175501 88588 322697 74840 421301 52763 82189 14598 51491 43929 106782 41922 106978 52297 26624 89382 235390 455408 69753 167410 6707 20593 32104 8250 34142 3450 48401 2688 1251
internal_value=0 0.0911092 -0.0424923 -0.0698105 -0.0117051 -0.00665282 -0.0299768 0.016518 0.00482999 0.0615928 0.10217 0.00585925 0.0417953 -0.0275078 0.132271 -0.096169 -0.0886089 -0.104867 0.0154012 -0.0114794 0.0782033 0.105035 0.136646 0.246227 -0.0801601 -0.153555 -0.173671 -0.105503 0.356635
internal_count=3340968 990192 2350776 1297327 1053449 352375 299612 632148 577196 202202 150711 217423 460029 374994 530163 944952 870112 780730 332458 237163 95295 127571 54952 22848 545340 89932 86482 52340 3939
shrinkage=0.05


Tree=35
num_leaves=30
num_cat=0
split_feature=3 1 2 9 1 1 2 1 1 2 1 5 5 1 9 1 9 1 1 2 9 9 2 2 2 18 1 18 3
split_gain=78.1268 54.97 108.052 51.1254 42.5682 41.2029 42.5764 33.0905 29.164 26.8351 24.6445 20.6048 32.8806 16.7591 17.4497 16.4097 15.9933 14.723 18.787 17.724 16.7835 14.2585 14.2527 38.1741 15.4563 14.1986 13.6391 13.7805 16.6811
threshold=1.0000000000000001e+300 30.862786441536972 115.04659788077009 142.50000000000003 34.559149481323182 29.062381671313606 100.73175218699201 19.516649071995278 33.669564305284347 101.03564466873367 30.126045837735106 2.5000000000000004 1.5000000000000002 25.095492029017517 17658.000000000004 33.816866600000012 6826.5000000000009 37.074577537837953 41.368374880340532 117.67062066273355 17517.000000000004 14829.000000000002 118.81847672578847 116.8852323918248 117.32867538595146 196.25000000000003 26.868364104322914 248.40000000000003 1.0000000180025095e-35
decision_type=8 8 10 2 10 10 10 10 10 10 10 10 10 10 2 10 2 10 10 10 2 2 10 10 10 8 10 8 10
left_child=1 3 4 -1 8 6 13 -8 21 16 -7 12 17 14 -5 -10 25 19 -19 -4 -20 -3 23 26 -25 -6 27 28 -9
right_child=-2 2 11 5 9 10 7 22 15 -11 -12 -13 -14 -15 -16 -17 -18 18 20 -21 -22 -23 -24 24 -26 -27 -28 -29 -30
leaf_value=-0.0044144723054499093 -0.0058615269556013053 -0.001867649026713776 -0.0047215058727067853 0.01820009058865937 -0.0077209348016492709 0.0064991291008293555 0.014888069054957135 0.0027757548895812581 0.0054855713159300996 -0.010295058906965327 0.0023158159391820058 -0.00089716944192109376 0.0069248271667010104 0.021104033950028061 -0.012339519001527896 -0.0014353028523991565 -0.0054454063932799363 0.0044013410513717424 -0.0067601440148655576 0.0011221419090951226 0.0065207904283442631 -0.0087341418517105189 -0.0057425934219887563 0.015086166172583029 0.0044305738356417565 0.012585515171704479 0.0028508984339017697 -0.0025991572519333777 -0.002667276042726022
leaf_count=142940 266310 62507 81959 2979 5378 274664 12163 166277 47733 196973 279337 356622 116000 12203 3551 147522 50773 174537 35491 170313 14656 91724 40795 17744 43367 12093 117806 294400 102151
internal_value=0 0.00801264 -0.0197955 0.0356263 -0.0932646 0.0471083 0.0164246 0.00830739 -0.044453 -0.161336 0.0879611 0.0214335 0.044328 0.295794 0.0440758 0.00852503 -0.0486328 0.0201561 0.0579199 -0.0137208 -0.0566038 -0.11809 0.00204457 0.0088636 0.157283 0.124805 -0.00635964 -0.0203948 0.0143527
internal_count=3340968 3074658 1564281 1510377 614703 1367437 813436 794703 349486 265217 554001 949578 592956 18733 6530 195255 68244 476956 224684 252272 50147 154231 782540 741745 61111 17471 680634 562828 268428
shrinkage=0.05


Tree=36
num_leaves=30
num_cat=0
split_feature=10 8 8 3 3 1 8 10 12 12 1 1 8 12 1 1 1 1 10 10 10 8 8 12 1 12 10 11 12
split_gain=237.475 149.997 118.028 76.5581 74.2223 47.6293 40.5403 40.0845 26.5822 26.4718 37.9808 26.443 26.1541 25.7274 24.4238 20.8711 23.6202 20.3079 20.1974 19.6801 18.9175 17.9753 17.2582 17.0271 16.0616 15.8779 15.8622 15.8373 15.0708
threshold=35.500000000000007 19.500000000000004 11.500000000000002 1.0000000000000001e+300 1.0000000180025095e-35 30.796467133128438 10.000000000000002 20.500000000000004 100.85176240000003 115.02458040000003 35.299411013798974 29.062381671313606 240.50000000000003 100.85176240000003 19.516649071995278 30.126045837735106 30.752129725681282 33.841349600000008 146.50000000000003 55.500000000000007 52.500000000000007 2103.5000000000005 1939.5000000000002 117.23500340000001 36.990800087031509 120.28477790000001 40.500000000000007 40.500000000000007 119.78230040000003
decision_type=8 2 2 8 10 8 2 10 2 2 10 10 2 2 10 10 10 10 10 10 10 2 2 2 10 2 8 10 2
left_child=1 2 -1 5 -4 8 17 21 -2 10 -8 14 19 20 -10 18 27 -7 -13 -11 -12 -3 -14 -9 -24 28 -26 -17 -19
right_child=3 7 4 -5 -6 6 9 23 11 12 13 15 22 -15 -16 16 -18 25 -20 -21 -22 -23 24 -25 26 -27 -28 -29 -30
